<?xml version="1.0"?>
<opencv_storage>
<cascade>
  <stageType>BOOST</stageType>
  <featureType>HAAR</featureType>
  <height>30</height>
  <width>30</width>
  <stageParams>
    <boostType>GAB</boostType>
    <minHitRate>9.9500000476837158e-01</minHitRate>
    <maxFalseAlarm>5.0000000000000000e-01</maxFalseAlarm>
    <weightTrimRate>9.4999998807907104e-01</weightTrimRate>
    <maxDepth>1</maxDepth>
    <maxWeakCount>100</maxWeakCount></stageParams>
  <featureParams>
    <maxCatCount>0</maxCatCount>
    <featSize>1</featSize>
    <mode>BASIC</mode></featureParams>
  <stageNum>15</stageNum>
  <stages>
    <!-- stage 0 -->
    <_>
      <maxWeakCount>14</maxWeakCount>
      <stageThreshold>-1.2528270483016968e+00</stageThreshold>
      <weakClassifiers>
        <_>
          <internalNodes>
            0 -1 114 1.2363328784704208e-01</internalNodes>
          <leafValues>
            -2.8481456637382507e-01 7.1278458833694458e-01</leafValues></_>
        <_>
          <internalNodes>
            0 -1 35 -2.9570391774177551e-01</internalNodes>
          <leafValues>
            -9.0119940042495728e-01 1.7928868532180786e-01</leafValues></_>
        <_>
          <internalNodes>
            0 -1 64 6.5236054360866547e-03</internalNodes>
          <leafValues>
            -1.7088836431503296e-01 7.7785658836364746e-01</leafValues></_>
        <_>
          <internalNodes>
            0 -1 290 -1.5067881904542446e-03</internalNodes>
          <leafValues>
            6.3631212711334229e-01 -2.1128700673580170e-01</leafValues></_>
        <_>
          <internalNodes>
            0 -1 372 1.3323904946446419e-02</internalNodes>
          <leafValues>
            2.2565484046936035e-01 -6.7254602909088135e-01</leafValues></_>
        <_>
          <internalNodes>
            0 -1 310 2.3713197559118271e-02</internalNodes>
          <leafValues>
            -3.7354335188865662e-01 4.2444297671318054e-01</leafValues></_>
        <_>
          <internalNodes>
            0 -1 160 3.2639491837471724e-03</internalNodes>
          <leafValues>
            -9.1247752308845520e-02 6.2964659929275513e-01</leafValues></_>
        <_>
          <internalNodes>
            0 -1 347 -3.2987953163683414e-03</internalNodes>
          <leafValues>
            5.9086114168167114e-01 -1.7370662093162537e-01</leafValues></_>
        <_>
          <internalNodes>
            0 -1 247 5.5042970925569534e-03</internalNodes>
          <leafValues>
            -8.6274273693561554e-02 8.3945846557617188e-01</leafValues></_>
        <_>
          <internalNodes>
            0 -1 133 -1.1506832391023636e-01</internalNodes>
          <leafValues>
            5.4580038785934448e-01 -1.4604426920413971e-01</leafValues></_>
        <_>
          <internalNodes>
            0 -1 120 -3.7011471576988697e-03</internalNodes>
          <leafValues>
            5.0139576196670532e-01 -1.7296361923217773e-01</leafValues></_>
        <_>
          <internalNodes>
            0 -1 28 1.6859732568264008e-02</internalNodes>
          <leafValues>
            1.3201072812080383e-01 -7.1279835700988770e-01</leafValues></_>
        <_>
          <internalNodes>
            0 -1 126 9.3808650970458984e-02</internalNodes>
          <leafValues>
            -2.0156511664390564e-01 4.9549546837806702e-01</leafValues></_>
        <_>
          <internalNodes>
            0 -1 230 1.4755507931113243e-02</internalNodes>
          <leafValues>
            -1.9221198558807373e-01 4.8973321914672852e-01</leafValues></_></weakClassifiers></_>
    <!-- stage 1 -->
    <_>
      <maxWeakCount>14</maxWeakCount>
      <stageThreshold>-9.6285319328308105e-01</stageThreshold>
      <weakClassifiers>
        <_>
          <internalNodes>
            0 -1 97 5.5918931961059570e-02</internalNodes>
          <leafValues>
            -3.2059079408645630e-01 4.3462896347045898e-01</leafValues></_>
        <_>
          <internalNodes>
            0 -1 36 5.1299729384481907e-03</internalNodes>
          <leafValues>
            -1.8374998867511749e-01 6.1583578586578369e-01</leafValues></_>
        <_>
          <internalNodes>
            0 -1 345 3.0771633610129356e-03</internalNodes>
          <leafValues>
            -1.9980819523334503e-01 5.9035247564315796e-01</leafValues></_>
        <_>
          <internalNodes>
            0 -1 348 -3.4233322367072105e-03</internalNodes>
          <leafValues>
            6.8903869390487671e-01 -1.2324491143226624e-01</leafValues></_>
        <_>
          <internalNodes>
            0 -1 320 7.7352894004434347e-04</internalNodes>
          <leafValues>
            -9.7401984035968781e-02 7.3398172855377197e-01</leafValues></_>
        <_>
          <internalNodes>
            0 -1 98 1.5732501633465290e-03</internalNodes>
          <leafValues>
            -1.1879157274961472e-01 6.9827473163604736e-01</leafValues></_>
        <_>
          <internalNodes>
            0 -1 53 2.6204098016023636e-02</internalNodes>
          <leafValues>
            -1.7657633125782013e-01 4.8444524407386780e-01</leafValues></_>
        <_>
          <internalNodes>
            0 -1 165 3.4807594493031502e-03</internalNodes>
          <leafValues>
            -1.0129601508378983e-01 7.5831776857376099e-01</leafValues></_>
        <_>
          <internalNodes>
            0 -1 150 -4.3087219819426537e-03</internalNodes>
          <leafValues>
            5.7909041643142700e-01 -1.2154716253280640e-01</leafValues></_>
        <_>
          <internalNodes>
            0 -1 146 1.9750320352613926e-03</internalNodes>
          <leafValues>
            -1.7507641017436981e-01 4.8272028565406799e-01</leafValues></_>
        <_>
          <internalNodes>
            0 -1 269 1.5393346548080444e-03</internalNodes>
          <leafValues>
            1.8082487583160400e-01 -5.5681061744689941e-01</leafValues></_>
        <_>
          <internalNodes>
            0 -1 336 5.4211439564824104e-03</internalNodes>
          <leafValues>
            -1.5967397391796112e-01 6.1324220895767212e-01</leafValues></_>
        <_>
          <internalNodes>
            0 -1 22 3.8031912408769131e-03</internalNodes>
          <leafValues>
            1.6925662755966187e-01 -5.8719277381896973e-01</leafValues></_>
        <_>
          <internalNodes>
            0 -1 82 3.6432086490094662e-03</internalNodes>
          <leafValues>
            -1.9297410547733307e-01 4.9250653386116028e-01</leafValues></_></weakClassifiers></_>
    <!-- stage 2 -->
    <_>
      <maxWeakCount>14</maxWeakCount>
      <stageThreshold>-1.1814831495285034e+00</stageThreshold>
      <weakClassifiers>
        <_>
          <internalNodes>
            0 -1 11 -5.3627463057637215e-03</internalNodes>
          <leafValues>
            4.8214286565780640e-01 -2.4397590756416321e-01</leafValues></_>
        <_>
          <internalNodes>
            0 -1 86 3.5157594829797745e-02</internalNodes>
          <leafValues>
            -2.0649774372577667e-01 5.5057132244110107e-01</leafValues></_>
        <_>
          <internalNodes>
            0 -1 295 2.4964059703052044e-03</internalNodes>
          <leafValues>
            -1.6508361697196960e-01 5.1390773057937622e-01</leafValues></_>
        <_>
          <internalNodes>
            0 -1 41 -1.9960608333349228e-03</internalNodes>
          <leafValues>
            2.6613953709602356e-01 -3.5548424720764160e-01</leafValues></_>
        <_>
          <internalNodes>
            0 -1 31 -2.9432242736220360e-03</internalNodes>
          <leafValues>
            6.0336738824844360e-01 -1.6926442086696625e-01</leafValues></_>
        <_>
          <internalNodes>
            0 -1 283 -1.1228945106267929e-02</internalNodes>
          <leafValues>
            3.8554295897483826e-01 -1.8924134969711304e-01</leafValues></_>
        <_>
          <internalNodes>
            0 -1 316 -6.1286889016628265e-02</internalNodes>
          <leafValues>
            -7.8570789098739624e-01 9.7513683140277863e-02</leafValues></_>
        <_>
          <internalNodes>
            0 -1 32 3.6039622500538826e-03</internalNodes>
          <leafValues>
            -1.7765583097934723e-01 5.4777109622955322e-01</leafValues></_>
        <_>
          <internalNodes>
            0 -1 267 -8.7033119052648544e-04</internalNodes>
          <leafValues>
            5.1830786466598511e-01 -1.6911956667900085e-01</leafValues></_>
        <_>
          <internalNodes>
            0 -1 115 1.6556769609451294e-01</internalNodes>
          <leafValues>
            9.9545031785964966e-02 -8.0462366342544556e-01</leafValues></_>
        <_>
          <internalNodes>
            0 -1 221 -9.0821916237473488e-03</internalNodes>
          <leafValues>
            4.9798721075057983e-01 -1.5320080518722534e-01</leafValues></_>
        <_>
          <internalNodes>
            0 -1 249 -1.0889415862038732e-03</internalNodes>
          <leafValues>
            3.4549668431282043e-01 -2.3398278653621674e-01</leafValues></_>
        <_>
          <internalNodes>
            0 -1 10 -4.6278916299343109e-02</internalNodes>
          <leafValues>
            -5.6680536270141602e-01 1.6839268803596497e-01</leafValues></_>
        <_>
          <internalNodes>
            0 -1 307 -3.7245936691761017e-02</internalNodes>
          <leafValues>
            4.4791570305824280e-01 -2.0885518193244934e-01</leafValues></_></weakClassifiers></_>
    <!-- stage 3 -->
    <_>
      <maxWeakCount>21</maxWeakCount>
      <stageThreshold>-1.0838035345077515e+00</stageThreshold>
      <weakClassifiers>
        <_>
          <internalNodes>
            0 -1 179 5.4645705968141556e-02</internalNodes>
          <leafValues>
            -2.2989323735237122e-01 5.4285717010498047e-01</leafValues></_>
        <_>
          <internalNodes>
            0 -1 70 -1.3365353457629681e-02</internalNodes>
          <leafValues>
            4.3989518284797668e-01 -1.7318245768547058e-01</leafValues></_>
        <_>
          <internalNodes>
            0 -1 293 -4.1680939495563507e-02</internalNodes>
          <leafValues>
            5.7971841096878052e-01 -1.9369533658027649e-01</leafValues></_>
        <_>
          <internalNodes>
            0 -1 258 5.7441031094640493e-04</internalNodes>
          <leafValues>
            1.5471032261848450e-01 -5.7808762788772583e-01</leafValues></_>
        <_>
          <internalNodes>
            0 -1 26 -1.4748807251453400e-01</internalNodes>
          <leafValues>
            -8.9075458049774170e-01 1.1411977559328079e-01</leafValues></_>
        <_>
          <internalNodes>
            0 -1 366 2.3112647235393524e-02</internalNodes>
          <leafValues>
            7.6290197670459747e-02 -6.9741535186767578e-01</leafValues></_>
        <_>
          <internalNodes>
            0 -1 223 1.4214688912034035e-02</internalNodes>
          <leafValues>
            -1.5228687226772308e-01 4.7809538245201111e-01</leafValues></_>
        <_>
          <internalNodes>
            0 -1 241 -6.1011011712253094e-03</internalNodes>
          <leafValues>
            4.8632523417472839e-01 -1.2270949780941010e-01</leafValues></_>
        <_>
          <internalNodes>
            0 -1 15 1.1407196288928390e-03</internalNodes>
          <leafValues>
            1.2810167670249939e-01 -4.8435503244400024e-01</leafValues></_>
        <_>
          <internalNodes>
            0 -1 77 2.3316884413361549e-02</internalNodes>
          <leafValues>
            -1.1313586682081223e-01 4.8283344507217407e-01</leafValues></_>
        <_>
          <internalNodes>
            0 -1 90 2.9836618341505527e-03</internalNodes>
          <leafValues>
            -2.0826736092567444e-01 3.1484895944595337e-01</leafValues></_>
        <_>
          <internalNodes>
            0 -1 239 6.0241259634494781e-03</internalNodes>
          <leafValues>
            -8.3299890160560608e-02 5.7263165712356567e-01</leafValues></_>
        <_>
          <internalNodes>
            0 -1 370 2.4496666155755520e-03</internalNodes>
          <leafValues>
            -1.1314391344785690e-01 5.5872237682342529e-01</leafValues></_>
        <_>
          <internalNodes>
            0 -1 325 -3.7471182644367218e-02</internalNodes>
          <leafValues>
            5.3595644235610962e-01 -1.3126654922962189e-01</leafValues></_>
        <_>
          <internalNodes>
            0 -1 149 -8.2708925008773804e-02</internalNodes>
          <leafValues>
            3.7558341026306152e-01 -1.7782460153102875e-01</leafValues></_>
        <_>
          <internalNodes>
            0 -1 238 2.3856911808252335e-02</internalNodes>
          <leafValues>
            -1.4703355729579926e-01 4.5761147141456604e-01</leafValues></_>
        <_>
          <internalNodes>
            0 -1 38 1.2009902857244015e-03</internalNodes>
          <leafValues>
            1.6300816833972931e-01 -3.8459312915802002e-01</leafValues></_>
        <_>
          <internalNodes>
            0 -1 256 -1.8585868179798126e-02</internalNodes>
          <leafValues>
            2.5748175382614136e-01 -2.4178296327590942e-01</leafValues></_>
        <_>
          <internalNodes>
            0 -1 57 4.0927422232925892e-03</internalNodes>
          <leafValues>
            -1.4080829918384552e-01 4.6146160364151001e-01</leafValues></_>
        <_>
          <internalNodes>
            0 -1 361 3.5083625698462129e-04</internalNodes>
          <leafValues>
            1.2318747490644455e-01 -5.4131388664245605e-01</leafValues></_>
        <_>
          <internalNodes>
            0 -1 313 1.7869058065116405e-03</internalNodes>
          <leafValues>
            -1.3800710439682007e-01 4.5215791463851929e-01</leafValues></_></weakClassifiers></_>
    <!-- stage 4 -->
    <_>
      <maxWeakCount>21</maxWeakCount>
      <stageThreshold>-1.0915577411651611e+00</stageThreshold>
      <weakClassifiers>
        <_>
          <internalNodes>
            0 -1 134 1.2919911742210388e-01</internalNodes>
          <leafValues>
            -2.1827411651611328e-01 4.8470208048820496e-01</leafValues></_>
        <_>
          <internalNodes>
            0 -1 94 4.2514842003583908e-02</internalNodes>
          <leafValues>
            -1.1431971937417984e-01 6.0264796018600464e-01</leafValues></_>
        <_>
          <internalNodes>
            0 -1 143 -3.8461495190858841e-02</internalNodes>
          <leafValues>
            6.2314373254776001e-01 -1.6869248449802399e-01</leafValues></_>
        <_>
          <internalNodes>
            0 -1 183 1.4601195231080055e-02</internalNodes>
          <leafValues>
            -2.4078088998794556e-01 3.9628279209136963e-01</leafValues></_>
        <_>
          <internalNodes>
            0 -1 298 -2.0311346277594566e-02</internalNodes>
          <leafValues>
            4.8810121417045593e-01 -1.3998936116695404e-01</leafValues></_>
        <_>
          <internalNodes>
            0 -1 344 -2.9470883309841156e-02</internalNodes>
          <leafValues>
            5.3053069114685059e-01 -1.2796814739704132e-01</leafValues></_>
        <_>
          <internalNodes>
            0 -1 255 -2.2474296856671572e-03</internalNodes>
          <leafValues>
            3.3836397528648376e-01 -1.7872971296310425e-01</leafValues></_>
        <_>
          <internalNodes>
            0 -1 54 1.6686031594872475e-03</internalNodes>
          <leafValues>
            -9.6720859408378601e-02 5.6170320510864258e-01</leafValues></_>
        <_>
          <internalNodes>
            0 -1 108 -8.7565686553716660e-03</internalNodes>
          <leafValues>
            4.3738618493080139e-01 -1.5497563779354095e-01</leafValues></_>
        <_>
          <internalNodes>
            0 -1 52 1.1624371632933617e-02</internalNodes>
          <leafValues>
            -8.0210179090499878e-02 4.9147978425025940e-01</leafValues></_>
        <_>
          <internalNodes>
            0 -1 204 -5.1365976105444133e-05</internalNodes>
          <leafValues>
            2.3046885430812836e-01 -2.7113834023475647e-01</leafValues></_>
        <_>
          <internalNodes>
            0 -1 316 -6.1382070183753967e-02</internalNodes>
          <leafValues>
            -8.8580274581909180e-01 3.4744381904602051e-02</leafValues></_>
        <_>
          <internalNodes>
            0 -1 374 3.1171510927379131e-03</internalNodes>
          <leafValues>
            1.6736555099487305e-01 -3.7100300192832947e-01</leafValues></_>
        <_>
          <internalNodes>
            0 -1 34 -5.7407915592193604e-03</internalNodes>
          <leafValues>
            1.9795206189155579e-01 -3.1704542040824890e-01</leafValues></_>
        <_>
          <internalNodes>
            0 -1 127 7.9151421785354614e-02</internalNodes>
          <leafValues>
            -2.0448914170265198e-01 3.3669602870941162e-01</leafValues></_>
        <_>
          <internalNodes>
            0 -1 326 -1.4547197148203850e-02</internalNodes>
          <leafValues>
            5.2067232131958008e-01 -1.5426209568977356e-01</leafValues></_>
        <_>
          <internalNodes>
            0 -1 278 -6.6346656531095505e-03</internalNodes>
          <leafValues>
            5.0569403171539307e-01 -1.1396855860948563e-01</leafValues></_>
        <_>
          <internalNodes>
            0 -1 141 -3.3407127484679222e-03</internalNodes>
          <leafValues>
            4.4996005296707153e-01 -1.2533308565616608e-01</leafValues></_>
        <_>
          <internalNodes>
            0 -1 20 2.2006598301231861e-03</internalNodes>
          <leafValues>
            1.1246855556964874e-01 -6.0313302278518677e-01</leafValues></_>
        <_>
          <internalNodes>
            0 -1 72 1.2759804121742491e-05</internalNodes>
          <leafValues>
            -3.0538967251777649e-01 2.0066139101982117e-01</leafValues></_>
        <_>
          <internalNodes>
            0 -1 171 -2.1882077679038048e-02</internalNodes>
          <leafValues>
            3.6263030767440796e-01 -1.7614258825778961e-01</leafValues></_></weakClassifiers></_>
    <!-- stage 5 -->
    <_>
      <maxWeakCount>25</maxWeakCount>
      <stageThreshold>-1.0351804494857788e+00</stageThreshold>
      <weakClassifiers>
        <_>
          <internalNodes>
            0 -1 116 6.7704364657402039e-02</internalNodes>
          <leafValues>
            -2.1574343740940094e-01 4.7133758664131165e-01</leafValues></_>
        <_>
          <internalNodes>
            0 -1 25 7.2849988937377930e-02</internalNodes>
          <leafValues>
            -1.9110995531082153e-01 4.2230904102325439e-01</leafValues></_>
        <_>
          <internalNodes>
            0 -1 208 -1.2682005763053894e-01</internalNodes>
          <leafValues>
            6.0417807102203369e-01 -1.2462488561868668e-01</leafValues></_>
        <_>
          <internalNodes>
            0 -1 75 -6.5138950943946838e-02</internalNodes>
          <leafValues>
            5.6253808736801147e-01 -1.4191399514675140e-01</leafValues></_>
        <_>
          <internalNodes>
            0 -1 292 -3.7681702524423599e-02</internalNodes>
          <leafValues>
            3.1049102544784546e-01 -1.6704325377941132e-01</leafValues></_>
        <_>
          <internalNodes>
            0 -1 182 2.4778097867965698e-02</internalNodes>
          <leafValues>
            -2.2264425456523895e-01 3.1368905305862427e-01</leafValues></_>
        <_>
          <internalNodes>
            0 -1 123 -1.7127522733062506e-03</internalNodes>
          <leafValues>
            3.0975416302680969e-01 -2.1238312125205994e-01</leafValues></_>
        <_>
          <internalNodes>
            0 -1 266 -1.4811151660978794e-02</internalNodes>
          <leafValues>
            3.5454255342483521e-01 -1.4883853495121002e-01</leafValues></_>
        <_>
          <internalNodes>
            0 -1 99 -6.7547122016549110e-03</internalNodes>
          <leafValues>
            3.2363310456275940e-01 -2.0222549140453339e-01</leafValues></_>
        <_>
          <internalNodes>
            0 -1 0 -2.6035110931843519e-03</internalNodes>
          <leafValues>
            -4.5701172947883606e-01 1.1309663951396942e-01</leafValues></_>
        <_>
          <internalNodes>
            0 -1 291 -1.6323123872280121e-01</internalNodes>
          <leafValues>
            -9.9058771133422852e-01 6.7901268601417542e-02</leafValues></_>
        <_>
          <internalNodes>
            0 -1 60 -3.3510671928524971e-03</internalNodes>
          <leafValues>
            4.0402796864509583e-01 -1.3028287887573242e-01</leafValues></_>
        <_>
          <internalNodes>
            0 -1 1 5.0974860787391663e-03</internalNodes>
          <leafValues>
            1.0303775221109390e-01 -4.9269929528236389e-01</leafValues></_>
        <_>
          <internalNodes>
            0 -1 166 -2.9350426048040390e-02</internalNodes>
          <leafValues>
            3.5453635454177856e-01 -1.5284256637096405e-01</leafValues></_>
        <_>
          <internalNodes>
            0 -1 67 -7.5726792216300964e-02</internalNodes>
          <leafValues>
            4.6706372499465942e-01 -1.3817515969276428e-01</leafValues></_>
        <_>
          <internalNodes>
            0 -1 178 -2.6598695665597916e-02</internalNodes>
          <leafValues>
            4.4727045297622681e-01 -1.2853434681892395e-01</leafValues></_>
        <_>
          <internalNodes>
            0 -1 95 -4.2074102908372879e-02</internalNodes>
          <leafValues>
            4.8920804262161255e-01 -1.1560690402984619e-01</leafValues></_>
        <_>
          <internalNodes>
            0 -1 139 7.5418699998408556e-04</internalNodes>
          <leafValues>
            1.6484209895133972e-01 -3.9651241898536682e-01</leafValues></_>
        <_>
          <internalNodes>
            0 -1 281 1.5144135802984238e-02</internalNodes>
          <leafValues>
            -9.2818334698677063e-02 7.6673728227615356e-01</leafValues></_>
        <_>
          <internalNodes>
            0 -1 147 4.1383340954780579e-02</internalNodes>
          <leafValues>
            -1.1496231704950333e-01 4.4982752203941345e-01</leafValues></_>
        <_>
          <internalNodes>
            0 -1 153 1.3889005780220032e-01</internalNodes>
          <leafValues>
            -8.0353289842605591e-02 6.1635845899581909e-01</leafValues></_>
        <_>
          <internalNodes>
            0 -1 148 -7.9887434840202332e-02</internalNodes>
          <leafValues>
            3.0027332901954651e-01 -2.1715226769447327e-01</leafValues></_>
        <_>
          <internalNodes>
            0 -1 343 3.4359272103756666e-04</internalNodes>
          <leafValues>
            1.5908254683017731e-01 -3.8863611221313477e-01</leafValues></_>
        <_>
          <internalNodes>
            0 -1 314 -3.9905086159706116e-02</internalNodes>
          <leafValues>
            3.6521911621093750e-01 -1.7802317440509796e-01</leafValues></_>
        <_>
          <internalNodes>
            0 -1 280 -1.0204153113591019e-05</internalNodes>
          <leafValues>
            2.4635280668735504e-01 -2.1162848174571991e-01</leafValues></_></weakClassifiers></_>
    <!-- stage 6 -->
    <_>
      <maxWeakCount>28</maxWeakCount>
      <stageThreshold>-1.1235932111740112e+00</stageThreshold>
      <weakClassifiers>
        <_>
          <internalNodes>
            0 -1 187 1.2449553608894348e-01</internalNodes>
          <leafValues>
            -1.9942197203636169e-01 4.4805195927619934e-01</leafValues></_>
        <_>
          <internalNodes>
            0 -1 303 1.2679270002990961e-03</internalNodes>
          <leafValues>
            1.4066848158836365e-01 -5.1844686269760132e-01</leafValues></_>
        <_>
          <internalNodes>
            0 -1 244 8.6841417942196131e-04</internalNodes>
          <leafValues>
            1.1375003308057785e-01 -4.7312670946121216e-01</leafValues></_>
        <_>
          <internalNodes>
            0 -1 19 2.6539684040471911e-04</internalNodes>
          <leafValues>
            1.4322084188461304e-01 -4.2031070590019226e-01</leafValues></_>
        <_>
          <internalNodes>
            0 -1 47 -5.3573995828628540e-03</internalNodes>
          <leafValues>
            5.8047521114349365e-01 -9.1002896428108215e-02</leafValues></_>
        <_>
          <internalNodes>
            0 -1 23 -4.3241623789072037e-02</internalNodes>
          <leafValues>
            3.8480168581008911e-01 -1.6564457118511200e-01</leafValues></_>
        <_>
          <internalNodes>
            0 -1 106 1.7784632742404938e-02</internalNodes>
          <leafValues>
            9.2849850654602051e-02 -6.1167162656784058e-01</leafValues></_>
        <_>
          <internalNodes>
            0 -1 367 -5.0260769203305244e-03</internalNodes>
          <leafValues>
            9.5279645919799805e-01 -7.0966251194477081e-02</leafValues></_>
        <_>
          <internalNodes>
            0 -1 257 -7.4558984488248825e-04</internalNodes>
          <leafValues>
            -4.0475299954414368e-01 1.5281940996646881e-01</leafValues></_>
        <_>
          <internalNodes>
            0 -1 93 3.5253370879217982e-04</internalNodes>
          <leafValues>
            -3.0051681399345398e-01 1.8493907153606415e-01</leafValues></_>
        <_>
          <internalNodes>
            0 -1 80 -1.0344278812408447e-01</internalNodes>
          <leafValues>
            -7.7858823537826538e-01 9.4602279365062714e-02</leafValues></_>
        <_>
          <internalNodes>
            0 -1 276 1.0196746885776520e-01</internalNodes>
          <leafValues>
            8.2725547254085541e-02 -6.6161775588989258e-01</leafValues></_>
        <_>
          <internalNodes>
            0 -1 198 2.6109276222996414e-04</internalNodes>
          <leafValues>
            1.0269393771886826e-01 -4.2679721117019653e-01</leafValues></_>
        <_>
          <internalNodes>
            0 -1 112 -4.8164717853069305e-02</internalNodes>
          <leafValues>
            3.9247715473175049e-01 -1.3719837367534637e-01</leafValues></_>
        <_>
          <internalNodes>
            0 -1 196 -2.7854397892951965e-02</internalNodes>
          <leafValues>
            2.7122399210929871e-01 -2.0883312821388245e-01</leafValues></_>
        <_>
          <internalNodes>
            0 -1 351 1.6030639410018921e-02</internalNodes>
          <leafValues>
            8.0278225243091583e-02 -6.2289810180664063e-01</leafValues></_>
        <_>
          <internalNodes>
            0 -1 333 -1.3889467343688011e-02</internalNodes>
          <leafValues>
            3.2941588759422302e-01 -1.4972050487995148e-01</leafValues></_>
        <_>
          <internalNodes>
            0 -1 229 6.1778239905834198e-03</internalNodes>
          <leafValues>
            -1.2627194821834564e-01 3.5681560635566711e-01</leafValues></_>
        <_>
          <internalNodes>
            0 -1 203 -1.8667399883270264e-02</internalNodes>
          <leafValues>
            4.8719179630279541e-01 -1.4004631340503693e-01</leafValues></_>
        <_>
          <internalNodes>
            0 -1 158 1.4300416223704815e-03</internalNodes>
          <leafValues>
            -2.2491487860679626e-01 2.3209105432033539e-01</leafValues></_>
        <_>
          <internalNodes>
            0 -1 252 -8.0389194190502167e-02</internalNodes>
          <leafValues>
            4.6346256136894226e-01 -1.1192746460437775e-01</leafValues></_>
        <_>
          <internalNodes>
            0 -1 359 1.0907491669058800e-03</internalNodes>
          <leafValues>
            1.1980824917554855e-01 -4.1573727130889893e-01</leafValues></_>
        <_>
          <internalNodes>
            0 -1 289 3.4534810110926628e-03</internalNodes>
          <leafValues>
            -7.0884376764297485e-02 7.1580761671066284e-01</leafValues></_>
        <_>
          <internalNodes>
            0 -1 14 -8.2833329215645790e-03</internalNodes>
          <leafValues>
            6.3302898406982422e-01 -6.8958260118961334e-02</leafValues></_>
        <_>
          <internalNodes>
            0 -1 48 2.4989139637909830e-04</internalNodes>
          <leafValues>
            1.6889703273773193e-01 -3.4222495555877686e-01</leafValues></_>
        <_>
          <internalNodes>
            0 -1 271 -1.6595565248280764e-03</internalNodes>
          <leafValues>
            3.2258906960487366e-01 -1.4402298629283905e-01</leafValues></_>
        <_>
          <internalNodes>
            0 -1 279 1.0598154738545418e-02</internalNodes>
          <leafValues>
            -1.2307374924421310e-01 3.9423081278800964e-01</leafValues></_>
        <_>
          <internalNodes>
            0 -1 177 5.9519391506910324e-03</internalNodes>
          <leafValues>
            -8.5650086402893066e-02 6.1954146623611450e-01</leafValues></_></weakClassifiers></_>
    <!-- stage 7 -->
    <_>
      <maxWeakCount>29</maxWeakCount>
      <stageThreshold>-1.0544059276580811e+00</stageThreshold>
      <weakClassifiers>
        <_>
          <internalNodes>
            0 -1 315 1.5751870349049568e-02</internalNodes>
          <leafValues>
            -1.6031537950038910e-01 5.1046025753021240e-01</leafValues></_>
        <_>
          <internalNodes>
            0 -1 144 6.4397320151329041e-02</internalNodes>
          <leafValues>
            -1.2969262897968292e-01 4.9133840203285217e-01</leafValues></_>
        <_>
          <internalNodes>
            0 -1 286 -3.0292984098196030e-02</internalNodes>
          <leafValues>
            5.2873462438583374e-01 -1.3736033439636230e-01</leafValues></_>
        <_>
          <internalNodes>
            0 -1 96 -1.4259959571063519e-02</internalNodes>
          <leafValues>
            3.4547615051269531e-01 -1.9530420005321503e-01</leafValues></_>
        <_>
          <internalNodes>
            0 -1 61 5.5249698460102081e-02</internalNodes>
          <leafValues>
            -4.0294289588928223e-02 7.8581428527832031e-01</leafValues></_>
        <_>
          <internalNodes>
            0 -1 42 -4.5835465425625443e-04</internalNodes>
          <leafValues>
            1.8755409121513367e-01 -2.8408047556877136e-01</leafValues></_>
        <_>
          <internalNodes>
            0 -1 330 -3.7043832708150148e-04</internalNodes>
          <leafValues>
            3.2794165611267090e-01 -1.5911352634429932e-01</leafValues></_>
        <_>
          <internalNodes>
            0 -1 10 -5.0665482878684998e-02</internalNodes>
          <leafValues>
            -6.4806944131851196e-01 9.6849098801612854e-02</leafValues></_>
        <_>
          <internalNodes>
            0 -1 218 -1.9781865179538727e-02</internalNodes>
          <leafValues>
            3.4553280472755432e-01 -1.8805687129497528e-01</leafValues></_>
        <_>
          <internalNodes>
            0 -1 163 -1.5399807598441839e-03</internalNodes>
          <leafValues>
            4.3112400174140930e-01 -7.5782604515552521e-02</leafValues></_>
        <_>
          <internalNodes>
            0 -1 76 3.9816316217184067e-02</internalNodes>
          <leafValues>
            -1.2749397754669189e-01 4.2836877703666687e-01</leafValues></_>
        <_>
          <internalNodes>
            0 -1 105 1.7068963643396273e-05</internalNodes>
          <leafValues>
            -2.0617897808551788e-01 2.2928991913795471e-01</leafValues></_>
        <_>
          <internalNodes>
            0 -1 197 -1.9704959413502365e-05</internalNodes>
          <leafValues>
            2.4284350872039795e-01 -1.8752598762512207e-01</leafValues></_>
        <_>
          <internalNodes>
            0 -1 288 -3.1350329518318176e-03</internalNodes>
          <leafValues>
            2.5447285175323486e-01 -1.8857286870479584e-01</leafValues></_>
        <_>
          <internalNodes>
            0 -1 352 5.2547659724950790e-03</internalNodes>
          <leafValues>
            -7.9070314764976501e-02 5.0135439634323120e-01</leafValues></_>
        <_>
          <internalNodes>
            0 -1 206 -1.1567118577659130e-02</internalNodes>
          <leafValues>
            -6.5873414278030396e-01 7.3488406836986542e-02</leafValues></_>
        <_>
          <internalNodes>
            0 -1 130 -1.1397360358387232e-03</internalNodes>
          <leafValues>
            -3.1149250268936157e-01 1.3200823962688446e-01</leafValues></_>
        <_>
          <internalNodes>
            0 -1 6 1.6257684677839279e-02</internalNodes>
          <leafValues>
            7.8053683042526245e-02 -4.9899250268936157e-01</leafValues></_>
        <_>
          <internalNodes>
            0 -1 3 4.5031167246634141e-05</internalNodes>
          <leafValues>
            -2.1799258887767792e-01 2.1669892966747284e-01</leafValues></_>
        <_>
          <internalNodes>
            0 -1 91 2.8040669858455658e-03</internalNodes>
          <leafValues>
            -1.2407042831182480e-01 3.5838320851325989e-01</leafValues></_>
        <_>
          <internalNodes>
            0 -1 175 -1.5334123373031616e-01</internalNodes>
          <leafValues>
            5.4406297206878662e-01 -9.1771095991134644e-02</leafValues></_>
        <_>
          <internalNodes>
            0 -1 268 -8.2103870227001607e-06</internalNodes>
          <leafValues>
            1.6622389853000641e-01 -2.8022027015686035e-01</leafValues></_>
        <_>
          <internalNodes>
            0 -1 39 5.6169539690017700e-02</internalNodes>
          <leafValues>
            -9.6678465604782104e-02 4.3763425946235657e-01</leafValues></_>
        <_>
          <internalNodes>
            0 -1 59 -2.2644470445811749e-03</internalNodes>
          <leafValues>
            4.3921372294425964e-01 -1.0540988296270370e-01</leafValues></_>
        <_>
          <internalNodes>
            0 -1 103 -5.4898606613278389e-03</internalNodes>
          <leafValues>
            3.3780506253242493e-01 -1.3836345076560974e-01</leafValues></_>
        <_>
          <internalNodes>
            0 -1 373 1.7912562470883131e-03</internalNodes>
          <leafValues>
            1.2853612005710602e-01 -3.4494736790657043e-01</leafValues></_>
        <_>
          <internalNodes>
            0 -1 362 4.0491344407200813e-03</internalNodes>
          <leafValues>
            -1.4334896206855774e-01 3.2866594195365906e-01</leafValues></_>
        <_>
          <internalNodes>
            0 -1 207 -2.4556869268417358e-01</internalNodes>
          <leafValues>
            -8.2074671983718872e-01 5.8566860854625702e-02</leafValues></_>
        <_>
          <internalNodes>
            0 -1 118 -5.0639715482247993e-05</internalNodes>
          <leafValues>
            2.0790264010429382e-01 -2.0479635894298553e-01</leafValues></_></weakClassifiers></_>
    <!-- stage 8 -->
    <_>
      <maxWeakCount>27</maxWeakCount>
      <stageThreshold>-9.7098076343536377e-01</stageThreshold>
      <weakClassifiers>
        <_>
          <internalNodes>
            0 -1 209 1.0798713564872742e-01</internalNodes>
          <leafValues>
            -1.1923307180404663e-01 6.0120844841003418e-01</leafValues></_>
        <_>
          <internalNodes>
            0 -1 339 1.0529076680541039e-02</internalNodes>
          <leafValues>
            -1.2156306952238083e-01 4.5200741291046143e-01</leafValues></_>
        <_>
          <internalNodes>
            0 -1 69 -2.3309525102376938e-02</internalNodes>
          <leafValues>
            -7.0318865776062012e-01 6.7966327071189880e-02</leafValues></_>
        <_>
          <internalNodes>
            0 -1 335 -1.5347182750701904e-02</internalNodes>
          <leafValues>
            4.3569731712341309e-01 -1.1100679636001587e-01</leafValues></_>
        <_>
          <internalNodes>
            0 -1 40 -1.1245894711464643e-03</internalNodes>
          <leafValues>
            3.0118694901466370e-01 -1.6999778151512146e-01</leafValues></_>
        <_>
          <internalNodes>
            0 -1 233 -7.0093907415866852e-03</internalNodes>
          <leafValues>
            -7.3942542076110840e-01 4.9924857914447784e-02</leafValues></_>
        <_>
          <internalNodes>
            0 -1 227 1.6930691897869110e-02</internalNodes>
          <leafValues>
            5.3075049072504044e-02 -8.9161133766174316e-01</leafValues></_>
        <_>
          <internalNodes>
            0 -1 37 -8.6406972259283066e-03</internalNodes>
          <leafValues>
            -3.3371406793594360e-01 1.4657433331012726e-01</leafValues></_>
        <_>
          <internalNodes>
            0 -1 152 -1.1231102049350739e-01</internalNodes>
          <leafValues>
            3.9711856842041016e-01 -2.0404072105884552e-01</leafValues></_>
        <_>
          <internalNodes>
            0 -1 137 1.0697873309254646e-02</internalNodes>
          <leafValues>
            1.3094100356101990e-01 -5.7476234436035156e-01</leafValues></_>
        <_>
          <internalNodes>
            0 -1 114 1.2483298778533936e-01</internalNodes>
          <leafValues>
            -1.8064227700233459e-01 2.9031616449356079e-01</leafValues></_>
        <_>
          <internalNodes>
            0 -1 164 -2.7001641690731049e-02</internalNodes>
          <leafValues>
            2.2420419752597809e-01 -2.4982430040836334e-01</leafValues></_>
        <_>
          <internalNodes>
            0 -1 337 7.5894291512668133e-03</internalNodes>
          <leafValues>
            -7.1466468274593353e-02 5.3830665349960327e-01</leafValues></_>
        <_>
          <internalNodes>
            0 -1 81 -6.7521125078201294e-02</internalNodes>
          <leafValues>
            -7.9508578777313232e-01 4.4236116111278534e-02</leafValues></_>
        <_>
          <internalNodes>
            0 -1 27 1.2573258019983768e-02</internalNodes>
          <leafValues>
            5.2678771317005157e-02 -6.8752539157867432e-01</leafValues></_>
        <_>
          <internalNodes>
            0 -1 174 2.0317707210779190e-02</internalNodes>
          <leafValues>
            -1.3925306499004364e-01 3.6623305082321167e-01</leafValues></_>
        <_>
          <internalNodes>
            0 -1 109 -5.3881753236055374e-02</internalNodes>
          <leafValues>
            5.6133073568344116e-01 -8.5752405226230621e-02</leafValues></_>
        <_>
          <internalNodes>
            0 -1 50 -2.6760250329971313e-03</internalNodes>
          <leafValues>
            4.2911300063133240e-01 -1.0970490425825119e-01</leafValues></_>
        <_>
          <internalNodes>
            0 -1 128 1.4935176074504852e-01</internalNodes>
          <leafValues>
            -7.3374338448047638e-02 5.4710465669631958e-01</leafValues></_>
        <_>
          <internalNodes>
            0 -1 243 -2.5493334978818893e-02</internalNodes>
          <leafValues>
            3.0529117584228516e-01 -1.6625848412513733e-01</leafValues></_>
        <_>
          <internalNodes>
            0 -1 193 1.1119889467954636e-01</internalNodes>
          <leafValues>
            -1.2449783831834793e-01 4.3599364161491394e-01</leafValues></_>
        <_>
          <internalNodes>
            0 -1 327 -3.4382589161396027e-02</internalNodes>
          <leafValues>
            -6.3000905513763428e-01 8.0603316426277161e-02</leafValues></_>
        <_>
          <internalNodes>
            0 -1 214 -1.1583832092583179e-03</internalNodes>
          <leafValues>
            -3.5411223769187927e-01 1.2517948448657990e-01</leafValues></_>
        <_>
          <internalNodes>
            0 -1 145 3.5967223346233368e-02</internalNodes>
          <leafValues>
            -1.5110760927200317e-01 3.9099267125129700e-01</leafValues></_>
        <_>
          <internalNodes>
            0 -1 65 1.3804375194013119e-02</internalNodes>
          <leafValues>
            -1.4689247310161591e-01 3.4559938311576843e-01</leafValues></_>
        <_>
          <internalNodes>
            0 -1 191 -4.6038893051445484e-03</internalNodes>
          <leafValues>
            3.6937782168388367e-01 -1.4640577137470245e-01</leafValues></_>
        <_>
          <internalNodes>
            0 -1 264 2.0832201465964317e-02</internalNodes>
          <leafValues>
            -5.5748127400875092e-02 8.4548008441925049e-01</leafValues></_></weakClassifiers></_>
    <!-- stage 9 -->
    <_>
      <maxWeakCount>26</maxWeakCount>
      <stageThreshold>-8.2037371397018433e-01</stageThreshold>
      <weakClassifiers>
        <_>
          <internalNodes>
            0 -1 131 5.7317346334457397e-02</internalNodes>
          <leafValues>
            -1.8077802658081055e-01 3.4397676587104797e-01</leafValues></_>
        <_>
          <internalNodes>
            0 -1 311 -3.0643247067928314e-02</internalNodes>
          <leafValues>
            5.0408732891082764e-01 -1.0978689044713974e-01</leafValues></_>
        <_>
          <internalNodes>
            0 -1 159 -1.0199503973126411e-02</internalNodes>
          <leafValues>
            3.4245914220809937e-01 -1.7115949094295502e-01</leafValues></_>
        <_>
          <internalNodes>
            0 -1 371 9.3984846025705338e-03</internalNodes>
          <leafValues>
            8.7198220193386078e-02 -5.9989589452743530e-01</leafValues></_>
        <_>
          <internalNodes>
            0 -1 302 -4.4440068304538727e-02</internalNodes>
          <leafValues>
            3.0052155256271362e-01 -1.3977181911468506e-01</leafValues></_>
        <_>
          <internalNodes>
            0 -1 305 4.9144901335239410e-02</internalNodes>
          <leafValues>
            -1.1730768531560898e-01 3.9364969730377197e-01</leafValues></_>
        <_>
          <internalNodes>
            0 -1 242 -1.1852362658828497e-03</internalNodes>
          <leafValues>
            3.8753753900527954e-01 -1.2838041782379150e-01</leafValues></_>
        <_>
          <internalNodes>
            0 -1 151 -1.0847331956028938e-02</internalNodes>
          <leafValues>
            -3.8689646124839783e-01 1.5422062575817108e-01</leafValues></_>
        <_>
          <internalNodes>
            0 -1 341 2.8082127682864666e-03</internalNodes>
          <leafValues>
            -1.0360570996999741e-01 6.9150686264038086e-01</leafValues></_>
        <_>
          <internalNodes>
            0 -1 324 1.0018503293395042e-02</internalNodes>
          <leafValues>
            -6.6544644534587860e-02 5.4337131977081299e-01</leafValues></_>
        <_>
          <internalNodes>
            0 -1 228 -7.8956931829452515e-02</internalNodes>
          <leafValues>
            3.3348578214645386e-01 -1.4980840682983398e-01</leafValues></_>
        <_>
          <internalNodes>
            0 -1 110 6.6966176033020020e-02</internalNodes>
          <leafValues>
            -1.0936325043439865e-01 4.6841582655906677e-01</leafValues></_>
        <_>
          <internalNodes>
            0 -1 192 -4.3767679482698441e-02</internalNodes>
          <leafValues>
            4.2386412620544434e-01 -9.5896519720554352e-02</leafValues></_>
        <_>
          <internalNodes>
            0 -1 237 -2.6818218175321817e-03</internalNodes>
          <leafValues>
            -5.9577351808547974e-01 1.1872887611389160e-01</leafValues></_>
        <_>
          <internalNodes>
            0 -1 363 7.7256967779248953e-04</internalNodes>
          <leafValues>
            -9.9056273698806763e-02 4.9517479538917542e-01</leafValues></_>
        <_>
          <internalNodes>
            0 -1 181 3.8650492206215858e-04</internalNodes>
          <leafValues>
            1.4204241335391998e-01 -3.3119270205497742e-01</leafValues></_>
        <_>
          <internalNodes>
            0 -1 340 -1.6109118587337434e-04</internalNodes>
          <leafValues>
            3.1638038158416748e-01 -1.6952903568744659e-01</leafValues></_>
        <_>
          <internalNodes>
            0 -1 102 1.5722354874014854e-03</internalNodes>
          <leafValues>
            -7.0895776152610779e-02 6.6090238094329834e-01</leafValues></_>
        <_>
          <internalNodes>
            0 -1 66 5.2666175179183483e-03</internalNodes>
          <leafValues>
            -2.3106016218662262e-01 2.0381285250186920e-01</leafValues></_>
        <_>
          <internalNodes>
            0 -1 246 -1.0398959740996361e-02</internalNodes>
          <leafValues>
            -4.6744534373283386e-01 1.1520519107580185e-01</leafValues></_>
        <_>
          <internalNodes>
            0 -1 73 1.4882799237966537e-02</internalNodes>
          <leafValues>
            9.6183888614177704e-02 -4.1940662264823914e-01</leafValues></_>
        <_>
          <internalNodes>
            0 -1 365 -2.0675589621532708e-04</internalNodes>
          <leafValues>
            -3.7607535719871521e-01 1.1541058123111725e-01</leafValues></_>
        <_>
          <internalNodes>
            0 -1 12 -3.6076253309147432e-05</internalNodes>
          <leafValues>
            1.7919604480266571e-01 -2.3165246844291687e-01</leafValues></_>
        <_>
          <internalNodes>
            0 -1 142 4.4889101991429925e-04</internalNodes>
          <leafValues>
            -1.6873741149902344e-01 2.5404050946235657e-01</leafValues></_>
        <_>
          <internalNodes>
            0 -1 254 -2.4153338745236397e-02</internalNodes>
          <leafValues>
            3.5248839855194092e-01 -1.1353727430105209e-01</leafValues></_>
        <_>
          <internalNodes>
            0 -1 44 8.0485623329877853e-03</internalNodes>
          <leafValues>
            -6.9835551083087921e-02 6.5119582414627075e-01</leafValues></_></weakClassifiers></_>
    <!-- stage 10 -->
    <_>
      <maxWeakCount>25</maxWeakCount>
      <stageThreshold>-9.1077786684036255e-01</stageThreshold>
      <weakClassifiers>
        <_>
          <internalNodes>
            0 -1 297 7.4045792222023010e-02</internalNodes>
          <leafValues>
            -8.5460595786571503e-02 7.7777779102325439e-01</leafValues></_>
        <_>
          <internalNodes>
            0 -1 263 -1.1465767771005630e-01</internalNodes>
          <leafValues>
            -7.6220393180847168e-01 5.0566066056489944e-02</leafValues></_>
        <_>
          <internalNodes>
            0 -1 5 7.0928293280303478e-03</internalNodes>
          <leafValues>
            1.5973408520221710e-01 -6.2502777576446533e-01</leafValues></_>
        <_>
          <internalNodes>
            0 -1 275 5.3681254386901855e-02</internalNodes>
          <leafValues>
            -1.5679538249969482e-01 3.6036381125450134e-01</leafValues></_>
        <_>
          <internalNodes>
            0 -1 88 2.3780006170272827e-01</internalNodes>
          <leafValues>
            4.0696252137422562e-02 -9.0858972072601318e-01</leafValues></_>
        <_>
          <internalNodes>
            0 -1 162 8.0458849668502808e-02</internalNodes>
          <leafValues>
            -8.6196094751358032e-02 6.5914386510848999e-01</leafValues></_>
        <_>
          <internalNodes>
            0 -1 46 -6.9418427301570773e-05</internalNodes>
          <leafValues>
            3.1252542138099670e-01 -1.3987603783607483e-01</leafValues></_>
        <_>
          <internalNodes>
            0 -1 212 3.2914616167545319e-03</internalNodes>
          <leafValues>
            1.2191917747259140e-01 -3.4462463855743408e-01</leafValues></_>
        <_>
          <internalNodes>
            0 -1 225 6.9266324862837791e-04</internalNodes>
          <leafValues>
            1.1447928100824356e-01 -4.4913768768310547e-01</leafValues></_>
        <_>
          <internalNodes>
            0 -1 332 -1.3810750097036362e-03</internalNodes>
          <leafValues>
            4.8078095912933350e-01 -1.0275005549192429e-01</leafValues></_>
        <_>
          <internalNodes>
            0 -1 85 -1.6372090578079224e-01</internalNodes>
          <leafValues>
            -9.8006159067153931e-01 5.0985541194677353e-02</leafValues></_>
        <_>
          <internalNodes>
            0 -1 364 -1.8466154870111495e-05</internalNodes>
          <leafValues>
            1.5102811157703400e-01 -2.9077139496803284e-01</leafValues></_>
        <_>
          <internalNodes>
            0 -1 125 -1.1498588137328625e-03</internalNodes>
          <leafValues>
            2.6280510425567627e-01 -1.8665367364883423e-01</leafValues></_>
        <_>
          <internalNodes>
            0 -1 219 4.0919138118624687e-03</internalNodes>
          <leafValues>
            8.1022255122661591e-02 -5.6458806991577148e-01</leafValues></_>
        <_>
          <internalNodes>
            0 -1 331 1.7137054819613695e-03</internalNodes>
          <leafValues>
            -7.2095006704330444e-02 7.5285214185714722e-01</leafValues></_>
        <_>
          <internalNodes>
            0 -1 71 -2.2207034635357559e-04</internalNodes>
          <leafValues>
            3.7547817826271057e-01 -1.0646270960569382e-01</leafValues></_>
        <_>
          <internalNodes>
            0 -1 207 -2.6861828565597534e-01</internalNodes>
          <leafValues>
            -1. 5.9451904147863388e-02</leafValues></_>
        <_>
          <internalNodes>
            0 -1 259 2.5018728338181973e-03</internalNodes>
          <leafValues>
            5.7156663388013840e-02 -6.1830455064773560e-01</leafValues></_>
        <_>
          <internalNodes>
            0 -1 176 -1.9771888852119446e-02</internalNodes>
          <leafValues>
            -7.9686003923416138e-01 5.5708829313516617e-02</leafValues></_>
        <_>
          <internalNodes>
            0 -1 319 -1.1419319361448288e-01</internalNodes>
          <leafValues>
            -9.6195775270462036e-01 3.1993359327316284e-02</leafValues></_>
        <_>
          <internalNodes>
            0 -1 104 3.6365956068038940e-02</internalNodes>
          <leafValues>
            4.1601099073886871e-02 -8.1435972452163696e-01</leafValues></_>
        <_>
          <internalNodes>
            0 -1 30 -1.0733824456110597e-04</internalNodes>
          <leafValues>
            3.2142663002014160e-01 -1.4289756119251251e-01</leafValues></_>
        <_>
          <internalNodes>
            0 -1 87 -1.3081961870193481e-01</internalNodes>
          <leafValues>
            -4.6326628327369690e-01 9.4302773475646973e-02</leafValues></_>
        <_>
          <internalNodes>
            0 -1 107 2.3166561499238014e-02</internalNodes>
          <leafValues>
            6.2092266976833344e-02 -5.7590627670288086e-01</leafValues></_>
        <_>
          <internalNodes>
            0 -1 328 -3.8204729207791388e-04</internalNodes>
          <leafValues>
            3.0510661005973816e-01 -1.5818294882774353e-01</leafValues></_></weakClassifiers></_>
    <!-- stage 11 -->
    <_>
      <maxWeakCount>28</maxWeakCount>
      <stageThreshold>-9.7304677963256836e-01</stageThreshold>
      <weakClassifiers>
        <_>
          <internalNodes>
            0 -1 231 7.3564532212913036e-03</internalNodes>
          <leafValues>
            -2.0385232567787170e-01 3.3687001466751099e-01</leafValues></_>
        <_>
          <internalNodes>
            0 -1 121 2.2895377129316330e-02</internalNodes>
          <leafValues>
            -1.4263300597667694e-01 4.3954384326934814e-01</leafValues></_>
        <_>
          <internalNodes>
            0 -1 124 -3.9381831884384155e-02</internalNodes>
          <leafValues>
            4.4473066926002502e-01 -1.8357641994953156e-01</leafValues></_>
        <_>
          <internalNodes>
            0 -1 216 4.0205650031566620e-02</internalNodes>
          <leafValues>
            -1.1179939657449722e-01 3.8107892870903015e-01</leafValues></_>
        <_>
          <internalNodes>
            0 -1 173 5.7986662723124027e-03</internalNodes>
          <leafValues>
            9.2693075537681580e-02 -3.9019650220870972e-01</leafValues></_>
        <_>
          <internalNodes>
            0 -1 200 -1.4421585947275162e-02</internalNodes>
          <leafValues>
            -6.6278654336929321e-01 9.2905461788177490e-02</leafValues></_>
        <_>
          <internalNodes>
            0 -1 21 -3.9607775397598743e-03</internalNodes>
          <leafValues>
            -7.1565312147140503e-01 2.3559309542179108e-02</leafValues></_>
        <_>
          <internalNodes>
            0 -1 323 -3.2300112070515752e-04</internalNodes>
          <leafValues>
            -3.9087310433387756e-01 9.7633749246597290e-02</leafValues></_>
        <_>
          <internalNodes>
            0 -1 194 1.3169462978839874e-01</internalNodes>
          <leafValues>
            -6.4448930323123932e-02 6.6981136798858643e-01</leafValues></_>
        <_>
          <internalNodes>
            0 -1 111 1.7930898070335388e-01</internalNodes>
          <leafValues>
            4.3432846665382385e-02 -9.5830112695693970e-01</leafValues></_>
        <_>
          <internalNodes>
            0 -1 168 2.4623754434287548e-03</internalNodes>
          <leafValues>
            -9.6559830009937286e-02 4.8131000995635986e-01</leafValues></_>
        <_>
          <internalNodes>
            0 -1 24 1.0466423118487000e-03</internalNodes>
          <leafValues>
            -1.8106427788734436e-01 2.3171806335449219e-01</leafValues></_>
        <_>
          <internalNodes>
            0 -1 43 4.9408525228500366e-04</internalNodes>
          <leafValues>
            5.5748719722032547e-02 -7.0824170112609863e-01</leafValues></_>
        <_>
          <internalNodes>
            0 -1 195 4.2249215766787529e-03</internalNodes>
          <leafValues>
            9.7419418394565582e-02 -4.5480087399482727e-01</leafValues></_>
        <_>
          <internalNodes>
            0 -1 334 2.1060281142126769e-05</internalNodes>
          <leafValues>
            -1.9004674255847931e-01 2.1373996138572693e-01</leafValues></_>
        <_>
          <internalNodes>
            0 -1 321 -4.0966840460896492e-03</internalNodes>
          <leafValues>
            4.7447654604911804e-01 -9.6859574317932129e-02</leafValues></_>
        <_>
          <internalNodes>
            0 -1 353 -4.2023543268442154e-02</internalNodes>
          <leafValues>
            -8.4086877107620239e-01 6.8209320306777954e-02</leafValues></_>
        <_>
          <internalNodes>
            0 -1 284 -9.5912136137485504e-02</internalNodes>
          <leafValues>
            -9.5378571748733521e-01 2.5784650817513466e-02</leafValues></_>
        <_>
          <internalNodes>
            0 -1 248 -1.2953301891684532e-02</internalNodes>
          <leafValues>
            3.7731304764747620e-01 -1.2194597721099854e-01</leafValues></_>
        <_>
          <internalNodes>
            0 -1 199 2.1810550242662430e-03</internalNodes>
          <leafValues>
            1.1925537139177322e-01 -4.2072004079818726e-01</leafValues></_>
        <_>
          <internalNodes>
            0 -1 190 1.0502826626179740e-05</internalNodes>
          <leafValues>
            -2.6407012343406677e-01 1.8481956422328949e-01</leafValues></_>
        <_>
          <internalNodes>
            0 -1 78 1.3913234695792198e-02</internalNodes>
          <leafValues>
            1.0586307197809219e-01 -4.4614753127098083e-01</leafValues></_>
        <_>
          <internalNodes>
            0 -1 167 -1.9365701824426651e-02</internalNodes>
          <leafValues>
            4.7408482432365417e-01 -1.0694725811481476e-01</leafValues></_>
        <_>
          <internalNodes>
            0 -1 360 -7.3147401213645935e-02</internalNodes>
          <leafValues>
            -7.9265660047531128e-01 7.2157114744186401e-02</leafValues></_>
        <_>
          <internalNodes>
            0 -1 201 5.2393697202205658e-02</internalNodes>
          <leafValues>
            3.6377489566802979e-02 -8.3982622623443604e-01</leafValues></_>
        <_>
          <internalNodes>
            0 -1 17 4.5376822352409363e-02</internalNodes>
          <leafValues>
            -1.0247618705034256e-01 5.2364301681518555e-01</leafValues></_>
        <_>
          <internalNodes>
            0 -1 205 -3.1618658453226089e-02</internalNodes>
          <leafValues>
            3.4716475009918213e-01 -1.2338328361511230e-01</leafValues></_>
        <_>
          <internalNodes>
            0 -1 222 9.6899857744574547e-03</internalNodes>
          <leafValues>
            1.4197866618633270e-01 -4.7585421800613403e-01</leafValues></_></weakClassifiers></_>
    <!-- stage 12 -->
    <_>
      <maxWeakCount>33</maxWeakCount>
      <stageThreshold>-9.4386523962020874e-01</stageThreshold>
      <weakClassifiers>
        <_>
          <internalNodes>
            0 -1 338 -2.2399567067623138e-02</internalNodes>
          <leafValues>
            4.9176469445228577e-01 -1.3269841670989990e-01</leafValues></_>
        <_>
          <internalNodes>
            0 -1 245 -1.5935024712234735e-03</internalNodes>
          <leafValues>
            -3.7541198730468750e-01 1.3587909936904907e-01</leafValues></_>
        <_>
          <internalNodes>
            0 -1 49 2.1372295916080475e-02</internalNodes>
          <leafValues>
            -9.5970079302787781e-02 4.3883195519447327e-01</leafValues></_>
        <_>
          <internalNodes>
            0 -1 211 1.7561187967658043e-02</internalNodes>
          <leafValues>
            -2.1056129038333893e-01 3.1407061219215393e-01</leafValues></_>
        <_>
          <internalNodes>
            0 -1 285 -4.3862301856279373e-02</internalNodes>
          <leafValues>
            4.4075122475624084e-01 -1.0906463861465454e-01</leafValues></_>
        <_>
          <internalNodes>
            0 -1 272 -4.9133595079183578e-02</internalNodes>
          <leafValues>
            4.8207011818885803e-01 -4.1330568492412567e-02</leafValues></_>
        <_>
          <internalNodes>
            0 -1 273 -1.0262640193104744e-02</internalNodes>
          <leafValues>
            1.9584335386753082e-01 -2.1832509338855743e-01</leafValues></_>
        <_>
          <internalNodes>
            0 -1 4 -4.4710299698635936e-04</internalNodes>
          <leafValues>
            -2.7680459618568420e-01 1.3392938673496246e-01</leafValues></_>
        <_>
          <internalNodes>
            0 -1 357 -7.1219843812286854e-04</internalNodes>
          <leafValues>
            -1.5930174291133881e-01 2.6786711812019348e-01</leafValues></_>
        <_>
          <internalNodes>
            0 -1 89 1.4380075968801975e-02</internalNodes>
          <leafValues>
            -9.9326066672801971e-02 4.0969353914260864e-01</leafValues></_>
        <_>
          <internalNodes>
            0 -1 117 -2.0018493756651878e-02</internalNodes>
          <leafValues>
            3.0138936638832092e-01 -1.4011958241462708e-01</leafValues></_>
        <_>
          <internalNodes>
            0 -1 138 -7.4907168745994568e-02</internalNodes>
          <leafValues>
            3.6841553449630737e-01 -1.2400980293750763e-01</leafValues></_>
        <_>
          <internalNodes>
            0 -1 270 -1.5093265101313591e-03</internalNodes>
          <leafValues>
            -4.2842108011245728e-01 1.5645495057106018e-01</leafValues></_>
        <_>
          <internalNodes>
            0 -1 92 1.1266940273344517e-03</internalNodes>
          <leafValues>
            -1.9914072751998901e-01 2.4477699398994446e-01</leafValues></_>
        <_>
          <internalNodes>
            0 -1 356 5.6141574168577790e-04</internalNodes>
          <leafValues>
            1.1566278338432312e-01 -4.4593375921249390e-01</leafValues></_>
        <_>
          <internalNodes>
            0 -1 277 9.0288612991571426e-03</internalNodes>
          <leafValues>
            -1.1871866881847382e-01 3.9351838827133179e-01</leafValues></_>
        <_>
          <internalNodes>
            0 -1 2 -1.0643063113093376e-02</internalNodes>
          <leafValues>
            5.1131111383438110e-01 -7.1290835738182068e-02</leafValues></_>
        <_>
          <internalNodes>
            0 -1 29 8.4252968430519104e-02</internalNodes>
          <leafValues>
            4.5541197061538696e-02 -8.1370991468429565e-01</leafValues></_>
        <_>
          <internalNodes>
            0 -1 213 1.7600106075406075e-03</internalNodes>
          <leafValues>
            1.3143780827522278e-01 -3.3195447921752930e-01</leafValues></_>
        <_>
          <internalNodes>
            0 -1 236 1.1060497723519802e-02</internalNodes>
          <leafValues>
            8.4105864167213440e-02 -5.8784031867980957e-01</leafValues></_>
        <_>
          <internalNodes>
            0 -1 369 -1.6794046387076378e-03</internalNodes>
          <leafValues>
            7.6810652017593384e-01 -6.0850549489259720e-02</leafValues></_>
        <_>
          <internalNodes>
            0 -1 185 1.7945498228073120e-02</internalNodes>
          <leafValues>
            -2.1139059960842133e-01 2.0653399825096130e-01</leafValues></_>
        <_>
          <internalNodes>
            0 -1 45 -5.6780083104968071e-03</internalNodes>
          <leafValues>
            1.7423279583454132e-01 -2.4462175369262695e-01</leafValues></_>
        <_>
          <internalNodes>
            0 -1 265 -4.5210588723421097e-03</internalNodes>
          <leafValues>
            -7.7661359310150146e-01 5.9343341737985611e-02</leafValues></_>
        <_>
          <internalNodes>
            0 -1 299 1.9272268982604146e-03</internalNodes>
          <leafValues>
            -1.3317547738552094e-01 3.3815979957580566e-01</leafValues></_>
        <_>
          <internalNodes>
            0 -1 156 -3.7510539405047894e-03</internalNodes>
          <leafValues>
            -7.2932267189025879e-01 6.3187591731548309e-02</leafValues></_>
        <_>
          <internalNodes>
            0 -1 309 3.3011764753609896e-04</internalNodes>
          <leafValues>
            -1.4692263305187225e-01 2.7916371822357178e-01</leafValues></_>
        <_>
          <internalNodes>
            0 -1 100 -1.5875905228313059e-04</internalNodes>
          <leafValues>
            -2.2802427411079407e-01 1.5882907807826996e-01</leafValues></_>
        <_>
          <internalNodes>
            0 -1 261 1.1967159807682037e-03</internalNodes>
          <leafValues>
            -1.0336866974830627e-01 4.1807091236114502e-01</leafValues></_>
        <_>
          <internalNodes>
            0 -1 250 -4.6793885529041290e-02</internalNodes>
          <leafValues>
            -7.2112441062927246e-01 6.3737235963344574e-02</leafValues></_>
        <_>
          <internalNodes>
            0 -1 51 -1.6504337545484304e-03</internalNodes>
          <leafValues>
            2.1335248649120331e-01 -1.7488054931163788e-01</leafValues></_>
        <_>
          <internalNodes>
            0 -1 55 -4.4036515057086945e-02</internalNodes>
          <leafValues>
            3.8405066728591919e-01 -1.1396833509206772e-01</leafValues></_>
        <_>
          <internalNodes>
            0 -1 161 -8.1188809126615524e-03</internalNodes>
          <leafValues>
            -3.1978300213813782e-01 1.3062369823455811e-01</leafValues></_></weakClassifiers></_>
    <!-- stage 13 -->
    <_>
      <maxWeakCount>37</maxWeakCount>
      <stageThreshold>-1.0388294458389282e+00</stageThreshold>
      <weakClassifiers>
        <_>
          <internalNodes>
            0 -1 262 2.5288190692663193e-02</internalNodes>
          <leafValues>
            -1.0874704271554947e-01 5.9740257263183594e-01</leafValues></_>
        <_>
          <internalNodes>
            0 -1 74 1.6691090166568756e-01</internalNodes>
          <leafValues>
            -7.0223465561866760e-02 5.6123316287994385e-01</leafValues></_>
        <_>
          <internalNodes>
            0 -1 68 4.7638823161832988e-04</internalNodes>
          <leafValues>
            1.2285231053829193e-01 -3.2436823844909668e-01</leafValues></_>
        <_>
          <internalNodes>
            0 -1 155 4.7009638510644436e-03</internalNodes>
          <leafValues>
            -7.9177372157573700e-02 5.1093083620071411e-01</leafValues></_>
        <_>
          <internalNodes>
            0 -1 135 -1.5126199461519718e-02</internalNodes>
          <leafValues>
            -6.1732578277587891e-01 5.9238880872726440e-02</leafValues></_>
        <_>
          <internalNodes>
            0 -1 202 1.3306100852787495e-02</internalNodes>
          <leafValues>
            -9.6658684313297272e-02 4.5930510759353638e-01</leafValues></_>
        <_>
          <internalNodes>
            0 -1 306 -9.3883052468299866e-02</internalNodes>
          <leafValues>
            6.1969476938247681e-01 -4.3450251221656799e-02</leafValues></_>
        <_>
          <internalNodes>
            0 -1 18 -8.2107007503509521e-02</internalNodes>
          <leafValues>
            5.0968271493911743e-01 -1.2460754066705704e-01</leafValues></_>
        <_>
          <internalNodes>
            0 -1 342 2.1696588955819607e-03</internalNodes>
          <leafValues>
            -7.2623215615749359e-02 4.4401654601097107e-01</leafValues></_>
        <_>
          <internalNodes>
            0 -1 232 -3.6510948091745377e-02</internalNodes>
          <leafValues>
            2.5951007008552551e-01 -1.6018404066562653e-01</leafValues></_>
        <_>
          <internalNodes>
            0 -1 217 7.5534105300903320e-02</internalNodes>
          <leafValues>
            7.8280135989189148e-02 -8.6645358800888062e-01</leafValues></_>
        <_>
          <internalNodes>
            0 -1 282 1.5806421637535095e-02</internalNodes>
          <leafValues>
            -1.0727410018444061e-01 7.9796451330184937e-01</leafValues></_>
        <_>
          <internalNodes>
            0 -1 304 -1.8247447907924652e-02</internalNodes>
          <leafValues>
            4.7353214025497437e-01 -6.3982747495174408e-02</leafValues></_>
        <_>
          <internalNodes>
            0 -1 58 -7.7125814277678728e-04</internalNodes>
          <leafValues>
            2.9000627994537354e-01 -1.3969771564006805e-01</leafValues></_>
        <_>
          <internalNodes>
            0 -1 368 2.2997104097157717e-03</internalNodes>
          <leafValues>
            4.3407235294580460e-02 -6.4355552196502686e-01</leafValues></_>
        <_>
          <internalNodes>
            0 -1 170 9.4013710622675717e-05</internalNodes>
          <leafValues>
            -1.4652355015277863e-01 2.6912114024162292e-01</leafValues></_>
        <_>
          <internalNodes>
            0 -1 7 -6.9600209593772888e-02</internalNodes>
          <leafValues>
            -1. 4.9401637166738510e-02</leafValues></_>
        <_>
          <internalNodes>
            0 -1 260 -3.7964913062751293e-03</internalNodes>
          <leafValues>
            -6.3563257455825806e-01 4.1813012212514877e-02</leafValues></_>
        <_>
          <internalNodes>
            0 -1 329 7.9578178701922297e-04</internalNodes>
          <leafValues>
            -9.4831906259059906e-02 3.8568636775016785e-01</leafValues></_>
        <_>
          <internalNodes>
            0 -1 318 -1.7221163725480437e-03</internalNodes>
          <leafValues>
            4.0676122903823853e-01 -1.0626488178968430e-01</leafValues></_>
        <_>
          <internalNodes>
            0 -1 129 -1.8647620454430580e-03</internalNodes>
          <leafValues>
            2.7230575680732727e-01 -1.4457789063453674e-01</leafValues></_>
        <_>
          <internalNodes>
            0 -1 235 -6.8222112022340298e-03</internalNodes>
          <leafValues>
            4.9196156859397888e-01 -7.3240190744400024e-02</leafValues></_>
        <_>
          <internalNodes>
            0 -1 234 1.4907242439221591e-04</internalNodes>
          <leafValues>
            -2.4633689224720001e-01 1.8081524968147278e-01</leafValues></_>
        <_>
          <internalNodes>
            0 -1 169 1.2710312381386757e-02</internalNodes>
          <leafValues>
            4.5703683048486710e-02 -8.3936148881912231e-01</leafValues></_>
        <_>
          <internalNodes>
            0 -1 301 -2.0363622752483934e-04</internalNodes>
          <leafValues>
            2.4802066385746002e-01 -1.4922510087490082e-01</leafValues></_>
        <_>
          <internalNodes>
            0 -1 79 2.8963256627321243e-02</internalNodes>
          <leafValues>
            -1.5467783808708191e-01 2.4944329261779785e-01</leafValues></_>
        <_>
          <internalNodes>
            0 -1 300 -6.7707494599744678e-04</internalNodes>
          <leafValues>
            2.4336317181587219e-01 -1.7204207181930542e-01</leafValues></_>
        <_>
          <internalNodes>
            0 -1 119 -2.4555064737796783e-04</internalNodes>
          <leafValues>
            -3.9205119013786316e-01 1.1156495660543442e-01</leafValues></_>
        <_>
          <internalNodes>
            0 -1 8 -5.1343448460102081e-02</internalNodes>
          <leafValues>
            -8.9158403873443604e-01 3.9108641445636749e-02</leafValues></_>
        <_>
          <internalNodes>
            0 -1 122 -3.7370450794696808e-02</internalNodes>
          <leafValues>
            4.5641446113586426e-01 -1.4817734062671661e-01</leafValues></_>
        <_>
          <internalNodes>
            0 -1 188 -1.3665499165654182e-02</internalNodes>
          <leafValues>
            4.3436634540557861e-01 -1.0062377154827118e-01</leafValues></_>
        <_>
          <internalNodes>
            0 -1 16 -6.3276991248130798e-02</internalNodes>
          <leafValues>
            -4.6057420969009399e-01 9.9004231393337250e-02</leafValues></_>
        <_>
          <internalNodes>
            0 -1 322 2.3276746273040771e-02</internalNodes>
          <leafValues>
            -1.5078470110893250e-01 3.0365204811096191e-01</leafValues></_>
        <_>
          <internalNodes>
            0 -1 355 -9.5994258299469948e-04</internalNodes>
          <leafValues>
            -2.6353585720062256e-01 1.6688124835491180e-01</leafValues></_>
        <_>
          <internalNodes>
            0 -1 63 -1.8917727470397949e-01</internalNodes>
          <leafValues>
            -9.3861061334609985e-01 4.4646162539720535e-02</leafValues></_>
        <_>
          <internalNodes>
            0 -1 346 2.0482710096985102e-03</internalNodes>
          <leafValues>
            -1.0149930417537689e-01 4.2391520738601685e-01</leafValues></_>
        <_>
          <internalNodes>
            0 -1 350 2.3193696513772011e-02</internalNodes>
          <leafValues>
            4.6696484088897705e-02 -1.</leafValues></_></weakClassifiers></_>
    <!-- stage 14 -->
    <_>
      <maxWeakCount>37</maxWeakCount>
      <stageThreshold>-9.4346535205841064e-01</stageThreshold>
      <weakClassifiers>
        <_>
          <internalNodes>
            0 -1 172 -2.1841339766979218e-02</internalNodes>
          <leafValues>
            3.0199429392814636e-01 -1.6332820057868958e-01</leafValues></_>
        <_>
          <internalNodes>
            0 -1 154 3.7962615489959717e-02</internalNodes>
          <leafValues>
            -7.7858366072177887e-02 5.2298367023468018e-01</leafValues></_>
        <_>
          <internalNodes>
            0 -1 157 -2.1507025230675936e-03</internalNodes>
          <leafValues>
            1.8804158270359039e-01 -2.1380910277366638e-01</leafValues></_>
        <_>
          <internalNodes>
            0 -1 101 -6.7213037982583046e-03</internalNodes>
          <leafValues>
            -6.6097426414489746e-01 4.7929447144269943e-02</leafValues></_>
        <_>
          <internalNodes>
            0 -1 140 -1.0776403360068798e-03</internalNodes>
          <leafValues>
            3.0775451660156250e-01 -1.4470972120761871e-01</leafValues></_>
        <_>
          <internalNodes>
            0 -1 62 -1.6550378873944283e-02</internalNodes>
          <leafValues>
            -9.4033420085906982e-01 2.7594354003667831e-02</leafValues></_>
        <_>
          <internalNodes>
            0 -1 253 6.5516732633113861e-02</internalNodes>
          <leafValues>
            4.2933687567710876e-02 -7.2521913051605225e-01</leafValues></_>
        <_>
          <internalNodes>
            0 -1 308 2.8319567441940308e-02</internalNodes>
          <leafValues>
            -1.5427069365978241e-01 2.6075232028961182e-01</leafValues></_>
        <_>
          <internalNodes>
            0 -1 296 -1.3901321217417717e-02</internalNodes>
          <leafValues>
            2.5545594096183777e-01 -1.5729795396327972e-01</leafValues></_>
        <_>
          <internalNodes>
            0 -1 13 -3.7335954606533051e-02</internalNodes>
          <leafValues>
            -5.6230574846267700e-01 6.9587334990501404e-02</leafValues></_>
        <_>
          <internalNodes>
            0 -1 132 7.1881107985973358e-02</internalNodes>
          <leafValues>
            -1.4884634315967560e-01 2.6525723934173584e-01</leafValues></_>
        <_>
          <internalNodes>
            0 -1 180 -9.4955693930387497e-04</internalNodes>
          <leafValues>
            2.2635774314403534e-01 -2.2010958194732666e-01</leafValues></_>
        <_>
          <internalNodes>
            0 -1 312 3.7065800279378891e-04</internalNodes>
          <leafValues>
            -1.0820024460554123e-01 3.4256121516227722e-01</leafValues></_>
        <_>
          <internalNodes>
            0 -1 215 4.4848946854472160e-03</internalNodes>
          <leafValues>
            1.4032532274723053e-01 -2.7866113185882568e-01</leafValues></_>
        <_>
          <internalNodes>
            0 -1 210 -6.0699041932821274e-04</internalNodes>
          <leafValues>
            2.2739070653915405e-01 -1.7381522059440613e-01</leafValues></_>
        <_>
          <internalNodes>
            0 -1 186 1.5799026936292648e-02</internalNodes>
          <leafValues>
            7.0245057344436646e-02 -6.9189333915710449e-01</leafValues></_>
        <_>
          <internalNodes>
            0 -1 317 7.0524797774851322e-04</internalNodes>
          <leafValues>
            -1.3221862912178040e-01 2.6189193129539490e-01</leafValues></_>
        <_>
          <internalNodes>
            0 -1 226 -8.2890149205923080e-03</internalNodes>
          <leafValues>
            3.9060026407241821e-01 -9.5126159489154816e-02</leafValues></_>
        <_>
          <internalNodes>
            0 -1 83 1.9718068651854992e-03</internalNodes>
          <leafValues>
            1.0522171109914780e-01 -3.4701257944107056e-01</leafValues></_>
        <_>
          <internalNodes>
            0 -1 56 1.6025505959987640e-02</internalNodes>
          <leafValues>
            -7.2757147252559662e-02 5.3929537534713745e-01</leafValues></_>
        <_>
          <internalNodes>
            0 -1 9 1.9453346729278564e-02</internalNodes>
          <leafValues>
            5.7126838713884354e-02 -7.9323953390121460e-01</leafValues></_>
        <_>
          <internalNodes>
            0 -1 294 1.7362594604492188e-02</internalNodes>
          <leafValues>
            -6.6433139145374298e-02 7.2709345817565918e-01</leafValues></_>
        <_>
          <internalNodes>
            0 -1 84 -5.3196987137198448e-03</internalNodes>
          <leafValues>
            4.9419051408767700e-01 -5.9477176517248154e-02</leafValues></_>
        <_>
          <internalNodes>
            0 -1 287 -2.1230254322290421e-02</internalNodes>
          <leafValues>
            -8.6681520938873291e-01 4.4293384999036789e-02</leafValues></_>
        <_>
          <internalNodes>
            0 -1 354 -1.0409984737634659e-02</internalNodes>
          <leafValues>
            5.8916419744491577e-01 -7.3546782135963440e-02</leafValues></_>
        <_>
          <internalNodes>
            0 -1 358 4.5808602590113878e-04</internalNodes>
          <leafValues>
            1.3838428258895874e-01 -2.8116020560264587e-01</leafValues></_>
        <_>
          <internalNodes>
            0 -1 184 4.9018729478120804e-03</internalNodes>
          <leafValues>
            3.2281052321195602e-02 -7.6433444023132324e-01</leafValues></_>
        <_>
          <internalNodes>
            0 -1 33 6.6619791090488434e-02</internalNodes>
          <leafValues>
            4.5775491744279861e-02 -6.9753569364547729e-01</leafValues></_>
        <_>
          <internalNodes>
            0 -1 349 3.0266069807112217e-03</internalNodes>
          <leafValues>
            -5.6274361908435822e-02 6.4590853452682495e-01</leafValues></_>
        <_>
          <internalNodes>
            0 -1 240 -1.7399997450411320e-03</internalNodes>
          <leafValues>
            -5.2615416049957275e-01 7.8175686299800873e-02</leafValues></_>
        <_>
          <internalNodes>
            0 -1 136 -5.0619533285498619e-03</internalNodes>
          <leafValues>
            2.2126346826553345e-01 -1.5522594749927521e-01</leafValues></_>
        <_>
          <internalNodes>
            0 -1 189 2.9460987448692322e-01</internalNodes>
          <leafValues>
            -7.8778706490993500e-02 3.9450004696846008e-01</leafValues></_>
        <_>
          <internalNodes>
            0 -1 220 1.0930532589554787e-02</internalNodes>
          <leafValues>
            1.7739972472190857e-01 -2.7353370189666748e-01</leafValues></_>
        <_>
          <internalNodes>
            0 -1 251 1.3244573026895523e-02</internalNodes>
          <leafValues>
            -1.8121016025543213e-01 2.4372389912605286e-01</leafValues></_>
        <_>
          <internalNodes>
            0 -1 274 1.0158671997487545e-02</internalNodes>
          <leafValues>
            -1.7171627283096313e-01 2.4626341462135315e-01</leafValues></_>
        <_>
          <internalNodes>
            0 -1 113 2.6695046108216047e-04</internalNodes>
          <leafValues>
            1.5262383222579956e-01 -2.3994828760623932e-01</leafValues></_>
        <_>
          <internalNodes>
            0 -1 224 1.9478479225654155e-04</internalNodes>
          <leafValues>
            1.2912932038307190e-01 -2.8653526306152344e-01</leafValues></_></weakClassifiers></_></stages>
  <features>
    <_>
      <rects>
        <_>
          0 0 1 12 -1.</_>
        <_>
          0 6 1 6 2.</_></rects>
      <tilted>0</tilted></_>
    <_>
      <rects>
        <_>
          0 0 1 20 -1.</_>
        <_>
          0 10 1 10 2.</_></rects>
      <tilted>0</tilted></_>
    <_>
      <rects>
        <_>
          0 0 3 30 -1.</_>
        <_>
          1 0 1 30 3.</_></rects>
      <tilted>0</tilted></_>
    <_>
      <rects>
        <_>
          0 0 2 10 -1.</_>
        <_>
          0 5 2 5 2.</_></rects>
      <tilted>0</tilted></_>
    <_>
      <rects>
        <_>
          0 0 6 2 -1.</_>
        <_>
          3 0 3 2 2.</_></rects>
      <tilted>0</tilted></_>
    <_>
      <rects>
        <_>
          0 0 3 8 -1.</_>
        <_>
          0 4 3 4 2.</_></rects>
      <tilted>0</tilted></_>
    <_>
      <rects>
        <_>
          0 0 5 12 -1.</_>
        <_>
          0 6 5 6 2.</_></rects>
      <tilted>0</tilted></_>
    <_>
      <rects>
        <_>
          0 0 11 10 -1.</_>
        <_>
          0 5 11 5 2.</_></rects>
      <tilted>0</tilted></_>
    <_>
      <rects>
        <_>
          0 0 29 4 -1.</_>
        <_>
          0 2 29 2 2.</_></rects>
      <tilted>0</tilted></_>
    <_>
      <rects>
        <_>
          0 1 3 12 -1.</_>
        <_>
          0 7 3 6 2.</_></rects>
      <tilted>0</tilted></_>
    <_>
      <rects>
        <_>
          0 1 11 14 -1.</_>
        <_>
          0 8 11 7 2.</_></rects>
      <tilted>0</tilted></_>
    <_>
      <rects>
        <_>
          0 1 18 6 -1.</_>
        <_>
          0 3 18 2 3.</_></rects>
      <tilted>0</tilted></_>
    <_>
      <rects>
        <_>
          0 2 18 4 -1.</_>
        <_>
          0 2 9 2 2.</_>
        <_>
          9 4 9 2 2.</_></rects>
      <tilted>0</tilted></_>
    <_>
      <rects>
        <_>
          0 2 11 12 -1.</_>
        <_>
          0 8 11 6 2.</_></rects>
      <tilted>0</tilted></_>
    <_>
      <rects>
        <_>
          0 3 3 16 -1.</_>
        <_>
          1 3 1 16 3.</_></rects>
      <tilted>0</tilted></_>
    <_>
      <rects>
        <_>
          0 3 2 6 -1.</_>
        <_>
          0 6 2 3 2.</_></rects>
      <tilted>0</tilted></_>
    <_>
      <rects>
        <_>
          0 3 14 18 -1.</_>
        <_>
          0 9 14 6 3.</_></rects>
      <tilted>0</tilted></_>
    <_>
      <rects>
        <_>
          0 4 24 3 -1.</_>
        <_>
          8 4 8 3 3.</_></rects>
      <tilted>0</tilted></_>
    <_>
      <rects>
        <_>
          0 4 24 4 -1.</_>
        <_>
          8 4 8 4 3.</_></rects>
      <tilted>0</tilted></_>
    <_>
      <rects>
        <_>
          0 5 1 4 -1.</_>
        <_>
          0 7 1 2 2.</_></rects>
      <tilted>0</tilted></_>
    <_>
      <rects>
        <_>
          0 5 4 4 -1.</_>
        <_>
          0 7 4 2 2.</_></rects>
      <tilted>0</tilted></_>
    <_>
      <rects>
        <_>
          0 5 10 2 -1.</_>
        <_>
          0 6 10 1 2.</_></rects>
      <tilted>0</tilted></_>
    <_>
      <rects>
        <_>
          0 6 1 14 -1.</_>
        <_>
          0 13 1 7 2.</_></rects>
      <tilted>0</tilted></_>
    <_>
      <rects>
        <_>
          0 6 18 8 -1.</_>
        <_>
          6 6 6 8 3.</_></rects>
      <tilted>0</tilted></_>
    <_>
      <rects>
        <_>
          0 6 20 2 -1.</_>
        <_>
          0 6 10 1 2.</_>
        <_>
          10 7 10 1 2.</_></rects>
      <tilted>0</tilted></_>
    <_>
      <rects>
        <_>
          0 7 30 15 -1.</_>
        <_>
          0 12 30 5 3.</_></rects>
      <tilted>0</tilted></_>
    <_>
      <rects>
        <_>
          0 8 30 20 -1.</_>
        <_>
          0 8 15 10 2.</_>
        <_>
          15 18 15 10 2.</_></rects>
      <tilted>0</tilted></_>
    <_>
      <rects>
        <_>
          0 9 2 16 -1.</_>
        <_>
          0 17 2 8 2.</_></rects>
      <tilted>0</tilted></_>
    <_>
      <rects>
        <_>
          0 9 3 18 -1.</_>
        <_>
          0 18 3 9 2.</_></rects>
      <tilted>0</tilted></_>
    <_>
      <rects>
        <_>
          0 9 8 20 -1.</_>
        <_>
          4 9 4 20 2.</_></rects>
      <tilted>0</tilted></_>
    <_>
      <rects>
        <_>
          0 10 1 3 -1.</_>
        <_>
          0 11 1 1 3.</_></rects>
      <tilted>0</tilted></_>
    <_>
      <rects>
        <_>
          0 12 12 3 -1.</_>
        <_>
          0 13 12 1 3.</_></rects>
      <tilted>0</tilted></_>
    <_>
      <rects>
        <_>
          0 12 20 3 -1.</_>
        <_>
          0 13 20 1 3.</_></rects>
      <tilted>0</tilted></_>
    <_>
      <rects>
        <_>
          0 13 16 6 -1.</_>
        <_>
          8 13 8 6 2.</_></rects>
      <tilted>0</tilted></_>
    <_>
      <rects>
        <_>
          0 13 9 14 -1.</_>
        <_>
          0 20 9 7 2.</_></rects>
      <tilted>0</tilted></_>
    <_>
      <rects>
        <_>
          0 13 30 17 -1.</_>
        <_>
          15 13 15 17 2.</_></rects>
      <tilted>0</tilted></_>
    <_>
      <rects>
        <_>
          0 14 28 3 -1.</_>
        <_>
          0 15 28 1 3.</_></rects>
      <tilted>0</tilted></_>
    <_>
      <rects>
        <_>
          0 17 21 4 -1.</_>
        <_>
          0 19 21 2 2.</_></rects>
      <tilted>0</tilted></_>
    <_>
      <rects>
        <_>
          0 18 4 7 -1.</_>
        <_>
          2 18 2 7 2.</_></rects>
      <tilted>0</tilted></_>
    <_>
      <rects>
        <_>
          0 19 24 10 -1.</_>
        <_>
          0 19 12 5 2.</_>
        <_>
          12 24 12 5 2.</_></rects>
      <tilted>0</tilted></_>
    <_>
      <rects>
        <_>
          0 23 2 7 -1.</_>
        <_>
          1 23 1 7 2.</_></rects>
      <tilted>0</tilted></_>
    <_>
      <rects>
        <_>
          0 23 6 7 -1.</_>
        <_>
          3 23 3 7 2.</_></rects>
      <tilted>0</tilted></_>
    <_>
      <rects>
        <_>
          0 28 15 1 -1.</_>
        <_>
          5 28 5 1 3.</_></rects>
      <tilted>0</tilted></_>
    <_>
      <rects>
        <_>
          1 0 2 1 -1.</_>
        <_>
          2 0 1 1 2.</_></rects>
      <tilted>0</tilted></_>
    <_>
      <rects>
        <_>
          1 0 3 13 -1.</_>
        <_>
          2 0 1 13 3.</_></rects>
      <tilted>0</tilted></_>
    <_>
      <rects>
        <_>
          1 0 2 30 -1.</_>
        <_>
          1 15 2 15 2.</_></rects>
      <tilted>0</tilted></_>
    <_>
      <rects>
        <_>
          1 3 1 3 -1.</_>
        <_>
          1 4 1 1 3.</_></rects>
      <tilted>0</tilted></_>
    <_>
      <rects>
        <_>
          1 3 3 16 -1.</_>
        <_>
          2 3 1 16 3.</_></rects>
      <tilted>0</tilted></_>
    <_>
      <rects>
        <_>
          1 3 6 1 -1.</_>
        <_>
          4 3 3 1 2.</_></rects>
      <tilted>0</tilted></_>
    <_>
      <rects>
        <_>
          1 3 16 3 -1.</_>
        <_>
          9 3 8 3 2.</_></rects>
      <tilted>0</tilted></_>
    <_>
      <rects>
        <_>
          1 6 3 10 -1.</_>
        <_>
          2 6 1 10 3.</_></rects>
      <tilted>0</tilted></_>
    <_>
      <rects>
        <_>
          1 6 10 6 -1.</_>
        <_>
          1 6 5 3 2.</_>
        <_>
          6 9 5 3 2.</_></rects>
      <tilted>0</tilted></_>
    <_>
      <rects>
        <_>
          1 7 24 1 -1.</_>
        <_>
          9 7 8 1 3.</_></rects>
      <tilted>0</tilted></_>
    <_>
      <rects>
        <_>
          1 7 21 9 -1.</_>
        <_>
          1 10 21 3 3.</_></rects>
      <tilted>0</tilted></_>
    <_>
      <rects>
        <_>
          1 8 3 5 -1.</_>
        <_>
          2 8 1 5 3.</_></rects>
      <tilted>0</tilted></_>
    <_>
      <rects>
        <_>
          1 9 19 12 -1.</_>
        <_>
          1 13 19 4 3.</_></rects>
      <tilted>0</tilted></_>
    <_>
      <rects>
        <_>
          1 11 6 9 -1.</_>
        <_>
          3 11 2 9 3.</_></rects>
      <tilted>0</tilted></_>
    <_>
      <rects>
        <_>
          1 11 16 3 -1.</_>
        <_>
          1 12 16 1 3.</_></rects>
      <tilted>0</tilted></_>
    <_>
      <rects>
        <_>
          1 12 5 3 -1.</_>
        <_>
          1 13 5 1 3.</_></rects>
      <tilted>0</tilted></_>
    <_>
      <rects>
        <_>
          1 12 6 3 -1.</_>
        <_>
          1 13 6 1 3.</_></rects>
      <tilted>0</tilted></_>
    <_>
      <rects>
        <_>
          1 12 10 3 -1.</_>
        <_>
          1 13 10 1 3.</_></rects>
      <tilted>0</tilted></_>
    <_>
      <rects>
        <_>
          1 12 22 6 -1.</_>
        <_>
          1 14 22 2 3.</_></rects>
      <tilted>0</tilted></_>
    <_>
      <rects>
        <_>
          1 13 18 1 -1.</_>
        <_>
          10 13 9 1 2.</_></rects>
      <tilted>0</tilted></_>
    <_>
      <rects>
        <_>
          1 13 28 15 -1.</_>
        <_>
          1 18 28 5 3.</_></rects>
      <tilted>0</tilted></_>
    <_>
      <rects>
        <_>
          1 14 28 3 -1.</_>
        <_>
          1 15 28 1 3.</_></rects>
      <tilted>0</tilted></_>
    <_>
      <rects>
        <_>
          1 15 10 9 -1.</_>
        <_>
          1 18 10 3 3.</_></rects>
      <tilted>0</tilted></_>
    <_>
      <rects>
        <_>
          1 16 14 8 -1.</_>
        <_>
          8 16 7 8 2.</_></rects>
      <tilted>0</tilted></_>
    <_>
      <rects>
        <_>
          1 16 9 14 -1.</_>
        <_>
          1 23 9 7 2.</_></rects>
      <tilted>0</tilted></_>
    <_>
      <rects>
        <_>
          1 21 4 2 -1.</_>
        <_>
          3 21 2 2 2.</_></rects>
      <tilted>0</tilted></_>
    <_>
      <rects>
        <_>
          1 21 22 6 -1.</_>
        <_>
          1 23 22 2 3.</_></rects>
      <tilted>0</tilted></_>
    <_>
      <rects>
        <_>
          1 25 12 4 -1.</_>
        <_>
          5 25 4 4 3.</_></rects>
      <tilted>0</tilted></_>
    <_>
      <rects>
        <_>
          1 26 2 2 -1.</_>
        <_>
          1 26 1 1 2.</_>
        <_>
          2 27 1 1 2.</_></rects>
      <tilted>0</tilted></_>
    <_>
      <rects>
        <_>
          2 0 4 12 -1.</_>
        <_>
          2 6 4 6 2.</_></rects>
      <tilted>0</tilted></_>
    <_>
      <rects>
        <_>
          2 0 24 2 -1.</_>
        <_>
          10 0 8 2 3.</_></rects>
      <tilted>0</tilted></_>
    <_>
      <rects>
        <_>
          2 1 20 18 -1.</_>
        <_>
          12 1 10 18 2.</_></rects>
      <tilted>0</tilted></_>
    <_>
      <rects>
        <_>
          2 3 24 4 -1.</_>
        <_>
          10 3 8 4 3.</_></rects>
      <tilted>0</tilted></_>
    <_>
      <rects>
        <_>
          2 3 21 9 -1.</_>
        <_>
          2 6 21 3 3.</_></rects>
      <tilted>0</tilted></_>
    <_>
      <rects>
        <_>
          2 5 9 14 -1.</_>
        <_>
          5 5 3 14 3.</_></rects>
      <tilted>0</tilted></_>
    <_>
      <rects>
        <_>
          2 6 25 4 -1.</_>
        <_>
          2 8 25 2 2.</_></rects>
      <tilted>0</tilted></_>
    <_>
      <rects>
        <_>
          2 9 27 12 -1.</_>
        <_>
          2 13 27 4 3.</_></rects>
      <tilted>0</tilted></_>
    <_>
      <rects>
        <_>
          2 10 28 18 -1.</_>
        <_>
          2 10 14 9 2.</_>
        <_>
          16 19 14 9 2.</_></rects>
      <tilted>0</tilted></_>
    <_>
      <rects>
        <_>
          2 11 27 3 -1.</_>
        <_>
          11 11 9 3 3.</_></rects>
      <tilted>0</tilted></_>
    <_>
      <rects>
        <_>
          2 15 21 3 -1.</_>
        <_>
          2 16 21 1 3.</_></rects>
      <tilted>0</tilted></_>
    <_>
      <rects>
        <_>
          2 20 4 4 -1.</_>
        <_>
          4 20 2 4 2.</_></rects>
      <tilted>0</tilted></_>
    <_>
      <rects>
        <_>
          2 22 6 4 -1.</_>
        <_>
          2 22 3 2 2.</_>
        <_>
          5 24 3 2 2.</_></rects>
      <tilted>0</tilted></_>
    <_>
      <rects>
        <_>
          3 0 18 12 -1.</_>
        <_>
          3 4 18 4 3.</_></rects>
      <tilted>0</tilted></_>
    <_>
      <rects>
        <_>
          3 0 23 9 -1.</_>
        <_>
          3 3 23 3 3.</_></rects>
      <tilted>0</tilted></_>
    <_>
      <rects>
        <_>
          3 4 27 18 -1.</_>
        <_>
          3 10 27 6 3.</_></rects>
      <tilted>0</tilted></_>
    <_>
      <rects>
        <_>
          3 6 19 24 -1.</_>
        <_>
          3 18 19 12 2.</_></rects>
      <tilted>0</tilted></_>
    <_>
      <rects>
        <_>
          3 7 6 13 -1.</_>
        <_>
          5 7 2 13 3.</_></rects>
      <tilted>0</tilted></_>
    <_>
      <rects>
        <_>
          3 7 7 6 -1.</_>
        <_>
          3 9 7 2 3.</_></rects>
      <tilted>0</tilted></_>
    <_>
      <rects>
        <_>
          3 8 3 21 -1.</_>
        <_>
          4 8 1 21 3.</_></rects>
      <tilted>0</tilted></_>
    <_>
      <rects>
        <_>
          3 8 9 3 -1.</_>
        <_>
          3 9 9 1 3.</_></rects>
      <tilted>0</tilted></_>
    <_>
      <rects>
        <_>
          3 9 8 18 -1.</_>
        <_>
          7 9 4 18 2.</_></rects>
      <tilted>0</tilted></_>
    <_>
      <rects>
        <_>
          3 10 14 9 -1.</_>
        <_>
          3 13 14 3 3.</_></rects>
      <tilted>0</tilted></_>
    <_>
      <rects>
        <_>
          3 11 6 18 -1.</_>
        <_>
          3 17 6 6 3.</_></rects>
      <tilted>0</tilted></_>
    <_>
      <rects>
        <_>
          3 11 26 6 -1.</_>
        <_>
          3 13 26 2 3.</_></rects>
      <tilted>0</tilted></_>
    <_>
      <rects>
        <_>
          3 11 27 15 -1.</_>
        <_>
          3 16 27 5 3.</_></rects>
      <tilted>0</tilted></_>
    <_>
      <rects>
        <_>
          3 12 3 3 -1.</_>
        <_>
          4 12 1 3 3.</_></rects>
      <tilted>0</tilted></_>
    <_>
      <rects>
        <_>
          3 12 4 16 -1.</_>
        <_>
          3 12 2 8 2.</_>
        <_>
          5 20 2 8 2.</_></rects>
      <tilted>0</tilted></_>
    <_>
      <rects>
        <_>
          3 13 1 4 -1.</_>
        <_>
          3 15 1 2 2.</_></rects>
      <tilted>0</tilted></_>
    <_>
      <rects>
        <_>
          3 22 19 3 -1.</_>
        <_>
          3 23 19 1 3.</_></rects>
      <tilted>0</tilted></_>
    <_>
      <rects>
        <_>
          3 26 2 4 -1.</_>
        <_>
          3 26 1 2 2.</_>
        <_>
          4 28 1 2 2.</_></rects>
      <tilted>0</tilted></_>
    <_>
      <rects>
        <_>
          3 26 14 4 -1.</_>
        <_>
          3 26 7 2 2.</_>
        <_>
          10 28 7 2 2.</_></rects>
      <tilted>0</tilted></_>
    <_>
      <rects>
        <_>
          3 28 20 2 -1.</_>
        <_>
          13 28 10 2 2.</_></rects>
      <tilted>0</tilted></_>
    <_>
      <rects>
        <_>
          4 0 1 2 -1.</_>
        <_>
          4 1 1 1 2.</_></rects>
      <tilted>0</tilted></_>
    <_>
      <rects>
        <_>
          4 0 20 2 -1.</_>
        <_>
          14 0 10 2 2.</_></rects>
      <tilted>0</tilted></_>
    <_>
      <rects>
        <_>
          4 0 22 2 -1.</_>
        <_>
          15 0 11 2 2.</_></rects>
      <tilted>0</tilted></_>
    <_>
      <rects>
        <_>
          4 1 12 6 -1.</_>
        <_>
          4 1 6 3 2.</_>
        <_>
          10 4 6 3 2.</_></rects>
      <tilted>0</tilted></_>
    <_>
      <rects>
        <_>
          4 4 21 3 -1.</_>
        <_>
          11 4 7 3 3.</_></rects>
      <tilted>0</tilted></_>
    <_>
      <rects>
        <_>
          4 4 26 4 -1.</_>
        <_>
          17 4 13 4 2.</_></rects>
      <tilted>0</tilted></_>
    <_>
      <rects>
        <_>
          4 5 12 24 -1.</_>
        <_>
          10 5 6 24 2.</_></rects>
      <tilted>0</tilted></_>
    <_>
      <rects>
        <_>
          4 8 12 22 -1.</_>
        <_>
          8 8 4 22 3.</_></rects>
      <tilted>0</tilted></_>
    <_>
      <rects>
        <_>
          4 9 1 8 -1.</_>
        <_>
          4 13 1 4 2.</_></rects>
      <tilted>0</tilted></_>
    <_>
      <rects>
        <_>
          4 10 21 18 -1.</_>
        <_>
          4 16 21 6 3.</_></rects>
      <tilted>0</tilted></_>
    <_>
      <rects>
        <_>
          4 10 25 20 -1.</_>
        <_>
          4 20 25 10 2.</_></rects>
      <tilted>0</tilted></_>
    <_>
      <rects>
        <_>
          4 11 22 12 -1.</_>
        <_>
          4 17 22 6 2.</_></rects>
      <tilted>0</tilted></_>
    <_>
      <rects>
        <_>
          4 14 8 15 -1.</_>
        <_>
          4 19 8 5 3.</_></rects>
      <tilted>0</tilted></_>
    <_>
      <rects>
        <_>
          4 15 5 3 -1.</_>
        <_>
          4 16 5 1 3.</_></rects>
      <tilted>0</tilted></_>
    <_>
      <rects>
        <_>
          4 18 1 2 -1.</_>
        <_>
          4 19 1 1 2.</_></rects>
      <tilted>0</tilted></_>
    <_>
      <rects>
        <_>
          4 25 6 4 -1.</_>
        <_>
          6 25 2 4 3.</_></rects>
      <tilted>0</tilted></_>
    <_>
      <rects>
        <_>
          5 0 11 9 -1.</_>
        <_>
          5 3 11 3 3.</_></rects>
      <tilted>0</tilted></_>
    <_>
      <rects>
        <_>
          5 0 18 9 -1.</_>
        <_>
          5 3 18 3 3.</_></rects>
      <tilted>0</tilted></_>
    <_>
      <rects>
        <_>
          5 1 9 4 -1.</_>
        <_>
          5 3 9 2 2.</_></rects>
      <tilted>0</tilted></_>
    <_>
      <rects>
        <_>
          5 1 18 9 -1.</_>
        <_>
          5 4 18 3 3.</_></rects>
      <tilted>0</tilted></_>
    <_>
      <rects>
        <_>
          5 2 18 3 -1.</_>
        <_>
          5 3 18 1 3.</_></rects>
      <tilted>0</tilted></_>
    <_>
      <rects>
        <_>
          5 7 19 18 -1.</_>
        <_>
          5 16 19 9 2.</_></rects>
      <tilted>0</tilted></_>
    <_>
      <rects>
        <_>
          5 7 20 18 -1.</_>
        <_>
          5 16 20 9 2.</_></rects>
      <tilted>0</tilted></_>
    <_>
      <rects>
        <_>
          5 8 20 16 -1.</_>
        <_>
          15 8 10 16 2.</_></rects>
      <tilted>0</tilted></_>
    <_>
      <rects>
        <_>
          5 9 6 3 -1.</_>
        <_>
          7 9 2 3 3.</_></rects>
      <tilted>0</tilted></_>
    <_>
      <rects>
        <_>
          5 10 8 16 -1.</_>
        <_>
          5 10 4 8 2.</_>
        <_>
          9 18 4 8 2.</_></rects>
      <tilted>0</tilted></_>
    <_>
      <rects>
        <_>
          5 10 18 16 -1.</_>
        <_>
          5 18 18 8 2.</_></rects>
      <tilted>0</tilted></_>
    <_>
      <rects>
        <_>
          5 10 21 14 -1.</_>
        <_>
          5 17 21 7 2.</_></rects>
      <tilted>0</tilted></_>
    <_>
      <rects>
        <_>
          5 10 22 14 -1.</_>
        <_>
          5 17 22 7 2.</_></rects>
      <tilted>0</tilted></_>
    <_>
      <rects>
        <_>
          5 11 23 18 -1.</_>
        <_>
          5 17 23 6 3.</_></rects>
      <tilted>0</tilted></_>
    <_>
      <rects>
        <_>
          5 12 8 12 -1.</_>
        <_>
          5 12 4 6 2.</_>
        <_>
          9 18 4 6 2.</_></rects>
      <tilted>0</tilted></_>
    <_>
      <rects>
        <_>
          5 15 6 14 -1.</_>
        <_>
          7 15 2 14 3.</_></rects>
      <tilted>0</tilted></_>
    <_>
      <rects>
        <_>
          5 19 22 4 -1.</_>
        <_>
          5 19 11 2 2.</_>
        <_>
          16 21 11 2 2.</_></rects>
      <tilted>0</tilted></_>
    <_>
      <rects>
        <_>
          5 19 20 10 -1.</_>
        <_>
          5 24 20 5 2.</_></rects>
      <tilted>0</tilted></_>
    <_>
      <rects>
        <_>
          5 20 3 4 -1.</_>
        <_>
          5 22 3 2 2.</_></rects>
      <tilted>0</tilted></_>
    <_>
      <rects>
        <_>
          5 22 20 3 -1.</_>
        <_>
          5 23 20 1 3.</_></rects>
      <tilted>0</tilted></_>
    <_>
      <rects>
        <_>
          5 23 4 6 -1.</_>
        <_>
          5 23 2 3 2.</_>
        <_>
          7 26 2 3 2.</_></rects>
      <tilted>0</tilted></_>
    <_>
      <rects>
        <_>
          6 0 12 2 -1.</_>
        <_>
          6 0 6 1 2.</_>
        <_>
          12 1 6 1 2.</_></rects>
      <tilted>0</tilted></_>
    <_>
      <rects>
        <_>
          6 0 13 9 -1.</_>
        <_>
          6 3 13 3 3.</_></rects>
      <tilted>0</tilted></_>
    <_>
      <rects>
        <_>
          6 0 20 12 -1.</_>
        <_>
          6 4 20 4 3.</_></rects>
      <tilted>0</tilted></_>
    <_>
      <rects>
        <_>
          6 8 12 17 -1.</_>
        <_>
          10 8 4 17 3.</_></rects>
      <tilted>0</tilted></_>
    <_>
      <rects>
        <_>
          6 9 3 13 -1.</_>
        <_>
          7 9 1 13 3.</_></rects>
      <tilted>0</tilted></_>
    <_>
      <rects>
        <_>
          6 9 12 17 -1.</_>
        <_>
          10 9 4 17 3.</_></rects>
      <tilted>0</tilted></_>
    <_>
      <rects>
        <_>
          6 9 24 18 -1.</_>
        <_>
          14 9 8 18 3.</_></rects>
      <tilted>0</tilted></_>
    <_>
      <rects>
        <_>
          6 10 24 16 -1.</_>
        <_>
          14 10 8 16 3.</_></rects>
      <tilted>0</tilted></_>
    <_>
      <rects>
        <_>
          6 11 3 19 -1.</_>
        <_>
          7 11 1 19 3.</_></rects>
      <tilted>0</tilted></_>
    <_>
      <rects>
        <_>
          6 11 11 6 -1.</_>
        <_>
          6 14 11 3 2.</_></rects>
      <tilted>0</tilted></_>
    <_>
      <rects>
        <_>
          6 11 21 14 -1.</_>
        <_>
          6 18 21 7 2.</_></rects>
      <tilted>0</tilted></_>
    <_>
      <rects>
        <_>
          6 12 18 15 -1.</_>
        <_>
          15 12 9 15 2.</_></rects>
      <tilted>0</tilted></_>
    <_>
      <rects>
        <_>
          6 12 19 6 -1.</_>
        <_>
          6 14 19 2 3.</_></rects>
      <tilted>0</tilted></_>
    <_>
      <rects>
        <_>
          6 22 4 6 -1.</_>
        <_>
          6 22 2 3 2.</_>
        <_>
          8 25 2 3 2.</_></rects>
      <tilted>0</tilted></_>
    <_>
      <rects>
