<?xml version="1.0"?>
<opencv_storage>
<stage14>
  <maxWeakCount>7</maxWeakCount>
  <stageThreshold>-1.6158490180969238e+00</stageThreshold>
  <weakClassifiers>
    <_>
      <internalNodes>
        0 -1 791183 1.6496451571583748e-02</internalNodes>
      <leafValues>
        -6.6326528787612915e-01 3.3870968222618103e-01</leafValues></_>
    <_>
      <internalNodes>
        0 -1 38765 -1.7560971900820732e-02</internalNodes>
      <leafValues>
        -7.6535594463348389e-01 1.9624502956867218e-01</leafValues></_>
    <_>
      <internalNodes>
        0 -1 9443 1.2427438050508499e-03</internalNodes>
      <leafValues>
        2.2159700095653534e-01 -6.5161961317062378e-01</leafValues></_>
    <_>
      <internalNodes>
        0 -1 122902 -1.0591462254524231e-02</internalNodes>
      <leafValues>
        -9.5086807012557983e-01 1.6873162984848022e-01</leafValues></_>
    <_>
      <internalNodes>
        0 -1 1637411 2.6955571956932545e-04</internalNodes>
      <leafValues>
        2.2677040100097656e-01 -7.0656943321228027e-01</leafValues></_>
    <_>
      <internalNodes>
        0 -1 1704895 -8.0658926162868738e-04</internalNodes>
      <leafValues>
        5.9827482700347900e-01 -3.0347040295600891e-01</leafValues></_>
    <_>
      <internalNodes>
        0 -1 813826 1.0971133597195148e-03</internalNodes>
      <leafValues>
        3.4409907460212708e-01 -5.5305325984954834e-01</leafValues></_></weakClassifiers></stage14>
</opencv_storage>
