<?xml version="1.0"?>
<opencv_storage>
<stage18>
  <maxWeakCount>8</maxWeakCount>
  <stageThreshold>-1.0941067934036255e+00</stageThreshold>
  <weakClassifiers>
    <_>
      <internalNodes>
        0 -1 2719104 -5.1438435912132263e-03</internalNodes>
      <leafValues>
        6.1403506994247437e-01 -5.8473283052444458e-01</leafValues></_>
    <_>
      <internalNodes>
        0 -1 2004628 -5.5013655219227076e-04</internalNodes>
      <leafValues>
        3.5187968611717224e-01 -4.7532215714454651e-01</leafValues></_>
    <_>
      <internalNodes>
        0 -1 4735 1.2688233982771635e-04</internalNodes>
      <leafValues>
        -2.9360088706016541e-01 5.2081817388534546e-01</leafValues></_>
    <_>
      <internalNodes>
        0 -1 280386 -1.3310199603438377e-02</internalNodes>
      <leafValues>
        -6.9991075992584229e-01 2.2327572107315063e-01</leafValues></_>
    <_>
      <internalNodes>
        0 -1 334162 -1.7845883965492249e-02</internalNodes>
      <leafValues>
        4.1467881202697754e-01 -3.7279963493347168e-01</leafValues></_>
    <_>
      <internalNodes>
        0 -1 1448305 -5.1442990079522133e-03</internalNodes>
      <leafValues>
        -6.7923164367675781e-01 2.2567732632160187e-01</leafValues></_>
    <_>
      <internalNodes>
        0 -1 235978 -4.6803390432614833e-05</internalNodes>
      <leafValues>
        -6.4135491847991943e-01 1.8673492968082428e-01</leafValues></_>
    <_>
      <internalNodes>
        0 -1 465849 4.8610558733344078e-03</internalNodes>
      <leafValues>
        1.4603950083255768e-01 -9.2891526222229004e-01</leafValues></_></weakClassifiers></stage18>
</opencv_storage>
