<?xml version="1.0"?>
<opencv_storage>
<stage4>
  <maxWeakCount>6</maxWeakCount>
  <stageThreshold>-1.3207933902740479e+00</stageThreshold>
  <weakClassifiers>
    <_>
      <internalNodes>
        0 -1 120731 -7.3205241933465004e-03</internalNodes>
      <leafValues>
        3.5135135054588318e-01 -7.0921987295150757e-01</leafValues></_>
    <_>
      <internalNodes>
        0 -1 2207152 -1.7305653542280197e-02</internalNodes>
      <leafValues>
        5.4040735960006714e-01 -4.4554463028907776e-01</leafValues></_>
    <_>
      <internalNodes>
        0 -1 2945664 -2.7194397989660501e-04</internalNodes>
      <leafValues>
        4.8490244150161743e-01 -4.2544391751289368e-01</leafValues></_>
    <_>
      <internalNodes>
        0 -1 2065962 6.4693318563513458e-05</internalNodes>
      <leafValues>
        2.6112192869186401e-01 -8.2878828048706055e-01</leafValues></_>
    <_>
      <internalNodes>
        0 -1 2584999 -2.8347919578664005e-04</internalNodes>
      <leafValues>
        5.4485857486724854e-01 -4.1357797384262085e-01</leafValues></_>
    <_>
      <internalNodes>
        0 -1 134993 -2.4485491216182709e-02</internalNodes>
      <leafValues>
        4.7042405605316162e-01 -4.9847525358200073e-01</leafValues></_></weakClassifiers></stage4>
</opencv_storage>
