<?xml version="1.0"?>
<opencv_storage>
<stage11>
  <maxWeakCount>7</maxWeakCount>
  <stageThreshold>-1.0281500816345215e+00</stageThreshold>
  <weakClassifiers>
    <_>
      <internalNodes>
        0 -1 2139825 -9.1449817409738898e-04</internalNodes>
      <leafValues>
        2.5609755516052246e-01 -7.1167880296707153e-01</leafValues></_>
    <_>
      <internalNodes>
        0 -1 2142691 -1.8239041790366173e-02</internalNodes>
      <leafValues>
        5.7021957635879517e-01 -4.6167808771133423e-01</leafValues></_>
    <_>
      <internalNodes>
        0 -1 57466 2.1449773339554667e-04</internalNodes>
      <leafValues>
        -2.7866470813751221e-01 6.0266816616058350e-01</leafValues></_>
    <_>
      <internalNodes>
        0 -1 1462701 -5.3407141240313649e-04</internalNodes>
      <leafValues>
        2.5734460353851318e-01 -5.9361577033996582e-01</leafValues></_>
    <_>
      <internalNodes>
        0 -1 2901322 3.7721975240856409e-04</internalNodes>
      <leafValues>
        -4.1243660449981689e-01 4.2776173353195190e-01</leafValues></_>
    <_>
      <internalNodes>
        0 -1 2247949 1.5604494139552116e-02</internalNodes>
      <leafValues>
        -4.2509123682975769e-01 3.8682398200035095e-01</leafValues></_>
    <_>
      <internalNodes>
        0 -1 73 7.7110147103667259e-03</internalNodes>
      <leafValues>
        2.0290163159370422e-01 -8.5289561748504639e-01</leafValues></_></weakClassifiers></stage11>
</opencv_storage>
