<?xml version="1.0"?>
<opencv_storage>
<stage15>
  <maxWeakCount>7</maxWeakCount>
  <stageThreshold>-1.4945342540740967e+00</stageThreshold>
  <weakClassifiers>
    <_>
      <internalNodes>
        0 -1 1863668 -3.8252040743827820e-02</internalNodes>
      <leafValues>
        5.1315790414810181e-01 -7.6071429252624512e-01</leafValues></_>
    <_>
      <internalNodes>
        0 -1 2342485 5.7487394660711288e-03</internalNodes>
      <leafValues>
        -5.8862149715423584e-01 5.1019173860549927e-01</leafValues></_>
    <_>
      <internalNodes>
        0 -1 1454278 -5.3918373305350542e-04</internalNodes>
      <leafValues>
        5.2515530586242676e-01 -4.0746763348579407e-01</leafValues></_>
    <_>
      <internalNodes>
        0 -1 155360 6.8725356832146645e-03</internalNodes>
      <leafValues>
        -4.4372051954269409e-01 5.5779904127120972e-01</leafValues></_>
    <_>
      <internalNodes>
        0 -1 2925786 6.7067584022879601e-03</internalNodes>
      <leafValues>
        3.2087361812591553e-01 -6.5753930807113647e-01</leafValues></_>
    <_>
      <internalNodes>
        0 -1 2994049 1.1720226611942053e-03</internalNodes>
      <leafValues>
        2.1054591238498688e-01 -9.8151057958602905e-01</leafValues></_>
    <_>
      <internalNodes>
        0 -1 1867825 -3.9243968203663826e-03</internalNodes>
      <leafValues>
        -8.4253430366516113e-01 1.7457012832164764e-01</leafValues></_></weakClassifiers></stage15>
</opencv_storage>
